{"learner":{"attributes":{"best_iteration":"24","best_ntree_limit":"25","scikit_learn":"{\"use_label_encoder\": false, \"n_estimators\": 25, \"objective\": \"binary:logistic\", \"max_depth\": 3, \"max_leaves\": null, \"max_bin\": null, \"grow_policy\": null, \"learning_rate\": null, \"verbosity\": null, \"booster\": null, \"tree_method\": null, \"gamma\": null, \"min_child_weight\": 0.97, \"max_delta_step\": null, \"subsample\": null, \"sampling_method\": null, \"colsample_bytree\": null, \"colsample_bylevel\": null, \"colsample_bynode\": null, \"reg_alpha\": null, \"reg_lambda\": null, \"scale_pos_weight\": null, \"base_score\": null, \"missing\": NaN, \"num_parallel_tree\": null, \"random_state\": null, \"n_jobs\": null, \"monotone_constraints\": null, \"interaction_constraints\": null, \"importance_type\": null, \"gpu_id\": null, \"validate_parameters\": null, \"predictor\": null, \"enable_categorical\": false, \"max_cat_to_onehot\": null, \"eval_metric\": null, \"early_stopping_rounds\": null, \"callbacks\": null, \"classes_\": [0, 1], \"n_classes_\": 2, \"_estimator_type\": \"classifier\"}"},"feature_names":["player_one_elo_proba","player_one_surface_win_proba","player_one_hand","player_two_hand","round","player_one_rest","player_two_rest","tourney_level","player_one_mp","player_two_mp","player_one_TS_proba"],"feature_types":["float","float","float","float","float","float","float","float","float","float","float"],"gradient_booster":{"model":{"gbtree_model_param":{"num_parallel_tree":"1","num_trees":"25","size_leaf_vector":"0"},"tree_info":[0,0,0,0,0,0,0,0,0,0,0,0,0,0,0,0,0,0,0,0,0,0,0,0,0],"trees":[{"base_weights":[-4.3599126E-3,-9.6982753E-1,1.0415182E0,-1.4979703E0,-4.617358E-1,5.565402E-1,1.509828E0,-1.7195246E0,-1.1948763E0,-7.526648E-1,-2.2245136E-1,7.4791807E-1,2.0238024E-1,1.2855427E0,1.7787387E0],"categories":[],"categories_nodes":[],"categories_segments":[],"categories_sizes":[],"default_left":[1,1,1,1,1,1,1,0,0,0,0,0,0,0,0],"id":0,"left_children":[1,3,5,7,9,11,13,-1,-1,-1,-1,-1,-1,-1,-1],"loss_changes":[5.0490094E4,6.976412E3,5.450381E3,8.540137E2,9.224546E2,7.991255E2,7.341328E2,0E0,0E0,0E0,0E0,0E0,0E0,0E0,0E0],"parents":[2147483647,0,0,1,1,2,2,3,3,4,4,5,5,6,6],"right_children":[2,4,6,8,10,12,14,-1,-1,-1,-1,-1,-1,-1,-1],"split_conditions":[5.1324177E-1,3.2376534E-1,6.8359154E-1,2.2894408E-1,4.129939E-1,6.222182E-1,8.084687E-1,-5.158574E-1,-3.584629E-1,-2.2579946E-1,-6.673541E-2,2.2437543E-1,6.0714073E-2,3.8566282E-1,5.3362167E-1],"split_indices":[10,10,10,10,10,0,10,0,0,0,0,0,0,0,0],"split_type":[0,0,0,0,0,0,0,0,0,0,0,0,0,0,0],"sum_hessian":[5E4,2.59995E4,2.40005E4,1.274725E4,1.325225E4,1.17915E4,1.2209E4,7.3615E3,5.38575E3,5.97975E3,7.2725E3,7.65425E3,4.13725E3,6.66E3,5.549E3],"tree_param":{"num_deleted":"0","num_feature":"11","num_nodes":"15","size_leaf_vector":"0"}},{"base_weights":[-3.170322E-3,-6.67311E-1,8.0556446E-1,-1.0684708E0,-2.4800892E-1,4.86698E-1,1.1898795E0,-1.3558147E0,-8.698977E-1,2.8322019E-2,-5.0871325E-1,2.2060329E-1,6.869274E-1,1.058452E0,1.4236037E0],"categories":[],"categories_nodes":[],"categories_segments":[],"categories_sizes":[],"default_left":[1,1,1,1,1,1,1,0,0,0,0,0,0,0,0],"id":1,"left_children":[1,3,5,7,9,11,13,-1,-1,-1,-1,-1,-1,-1,-1],"loss_changes":[2.6083402E4,4.4849414E3,2.6828408E3,7.7635547E2,9.393446E2,6.3757935E2,3.0348828E2,0E0,0E0,0E0,0E0,0E0,0E0,0E0,0E0],"parents":[2147483647,0,0,1,1,2,2,3,3,4,4,5,5,6,6],"right_children":[2,4,6,8,10,12,14,-1,-1,-1,-1,-1,-1,-1,-1],"split_conditions":[5.3241885E-1,3.4789002E-1,7.121855E-1,1.9962803E-1,4.512723E-1,6.0508E-1,8.4965837E-1,-4.0674442E-1,-2.6096934E-1,8.496606E-3,-1.5261398E-1,6.618099E-2,2.0607822E-1,3.175356E-1,4.270811E-1],"split_indices":[10,10,10,10,0,10,10,0,0,0,0,0,0,0,0],"split_type":[0,0,0,0,0,0,0,0,0,0,0,0,0,0,0],"sum_hessian":[4.8560168E4,2.6663785E4,2.189638E4,1.36259E4,1.3037886E4,1.1968433E4,9.927948E3,5.5659297E3,8.0599707E3,6.329688E3,6.7081973E3,5.1398857E3,6.828547E3,6.3581616E3,3.5697861E3],"tree_param":{"num_deleted":"0","num_feature":"11","num_nodes":"15","size_leaf_vector":"0"}},{"base_weights":[-2.3428048E-3,-6.2460387E-1,5.1266366E-1,-1.0150154E0,-4.028226E-1,1.567239E-1,8.2599175E-1,-1.2468473E0,-8.7293184E-1,-1.5055582E-1,-6.1609584E-1,4.1137838E-1,-1.24113195E-1,6.249414E-1,1.0766164E0],"categories":[],"categories_nodes":[],"categories_segments":[],"categories_sizes":[],"default_left":[1,1,1,1,1,1,1,0,0,0,0,0,0,0,0],"id":2,"left_children":[1,3,5,7,9,11,13,-1,-1,-1,-1,-1,-1,-1,-1],"loss_changes":[1.4735615E4,1.8025269E3,2.805749E3,2.4736719E2,7.144331E2,8.425002E2,6.735293E2,0E0,0E0,0E0,0E0,0E0,0E0,0E0,0E0],"parents":[2147483647,0,0,1,1,2,2,3,3,4,4,5,5,6,6],"right_children":[2,4,6,8,10,12,14,-1,-1,-1,-1,-1,-1,-1,-1],"split_conditions":[4.693187E-1,2.5952643E-1,6.371087E-1,1.4116298E-1,3.8837355E-1,5.4691947E-1,7.742193E-1,-3.740542E-1,-2.6187956E-1,-4.5166746E-2,-1.8482876E-1,1.2341352E-1,-3.723396E-2,1.8748243E-1,3.2298493E-1],"split_indices":[10,10,10,10,0,0,10,0,0,0,0,0,0,0,0],"split_type":[0,0,0,0,0,0,0,0,0,0,0,0,0,0,0],"sum_hessian":[4.597948E4,2.0821504E4,2.5157977E4,7.5417856E3,1.3279719E4,1.1778799E4,1.3379179E4,2.8628352E3,4.6789507E3,6.0844873E3,7.195232E3,6.1771147E3,5.6016836E3,7.4257544E3,5.953424E3],"tree_param":{"num_deleted":"0","num_feature":"11","num_nodes":"15","size_leaf_vector":"0"}},{"base_weights":[-1.8134686E-3,-5.609003E-1,3.4095895E-1,-8.8776183E-1,-3.9268133E-1,6.8361014E-2,6.37181E-1,-1.0916883E0,-7.374913E-1,2.1426475E-2,-5.147928E-1,2.7405822E-1,-1.4273076E-1,4.4349042E-1,8.841082E-1],"categories":[],"categories_nodes":[],"categories_segments":[],"categories_sizes":[],"default_left":[1,1,1,1,1,1,1,0,0,0,0,0,0,0,0],"id":3,"left_children":[1,3,5,7,9,11,13,-1,-1,-1,-1,-1,-1,-1,-1],"loss_changes":[8.307979E3,9.0562646E2,2.1701113E3,1.707334E2,5.501937E2,6.077931E2,6.155957E2,0E0,0E0,0E0,0E0,0E0,0E0,0E0,0E0],"parents":[2147483647,0,0,1,1,2,2,3,3,4,4,5,5,6,6],"right_children":[2,4,6,8,10,12,14,-1,-1,-1,-1,-1,-1,-1,-1],"split_conditions":[4.266265E-1,2.3826376E-1,6.2509096E-1,1.4116298E-1,2.80838E-1,5.211197E-1,7.6077586E-1,-3.2750648E-1,-2.212474E-1,6.427943E-3,-1.5443784E-1,8.221747E-2,-4.2819228E-2,1.3304713E-1,2.6523247E-1],"split_indices":[10,10,10,10,0,0,10,0,0,0,0,0,0,0,0],"split_type":[0,0,0,0,0,0,0,0,0,0,0,0,0,0,0],"sum_hessian":[4.3350117E4,1.647597E4,2.6874145E4,5.5967676E3,1.0879203E4,1.3995779E4,1.2878366E4,2.37181E3,3.2249578E3,2.4776736E3,8.401529E3,7.0883135E3,6.9074653E3,7.218749E3,5.6596167E3],"tree_param":{"num_deleted":"0","num_feature":"11","num_nodes":"15","size_leaf_vector":"0"}},{"base_weights":[-1.6513469E-3,-2.7851444E-1,4.2148003E-1,-6.475757E-1,-1.0362728E-1,3.150085E-1,8.5337657E-1,-9.46876E-1,-5.314386E-1,1.863914E-1,-1.9725332E-1,4.321476E-1,-8.455313E-2,6.80431E-1,1.0215055E0],"categories":[],"categories_nodes":[],"categories_segments":[],"categories_sizes":[],"default_left":[1,1,1,1,1,1,1,0,0,0,0,0,0,0,0],"id":4,"left_children":[1,3,5,7,9,11,13,-1,-1,-1,-1,-1,-1,-1,-1],"loss_changes":[4.804602E3,1.6000581E3,7.4566626E2,2.7655176E2,4.568006E2,6.091898E2,9.256909E1,0E0,0E0,0E0,0E0,0E0,0E0,0E0,0E0],"parents":[2147483647,0,0,1,1,2,2,3,3,4,4,5,5,6,6],"right_children":[2,4,6,8,10,12,14,-1,-1,-1,-1,-1,-1,-1,-1],"split_conditions":[5.59595E-1,3.0584067E-1,8.111073E-1,1.5320049E-1,3.542742E-1,7.280487E-1,8.7881815E-1,-2.840628E-1,-1.5943158E-1,5.5917423E-2,-5.9175998E-2,1.2964429E-1,-2.536594E-2,2.0412931E-1,3.0645165E-1],"split_indices":[10,10,10,10,0,0,10,0,0,0,0,0,0,0,0],"split_type":[0,0,0,0,0,0,0,0,0,0,0,0,0,0,0],"sum_hessian":[4.101058E4,2.4790207E4,1.6220373E4,7.969536E3,1.682067E4,1.3013902E4,3.2064705E3,2.2259133E3,5.743623E3,4.104735E3,1.2715936E4,1.0063511E4,2.9503918E3,1.5830822E3,1.6233884E3],"tree_param":{"num_deleted":"0","num_feature":"11","num_nodes":"15","size_leaf_vector":"0"}},{"base_weights":[-1.2286678E-3,-4.2677793E-1,1.7920601E-1,-7.934064E-1,-3.3994457E-1,7.476622E-2,5.7639754E-1,-9.666455E-1,-6.4008856E-1,7.8779735E-2,-4.4820487E-1,1.5172984E-1,-1.8593687E-1,4.6446395E-1,8.981961E-1],"categories":[],"categories_nodes":[],"categories_segments":[],"categories_sizes":[],"default_left":[1,1,1,1,1,1,1,0,0,0,0,0,0,0,0],"id":5,"left_children":[1,3,5,7,9,11,13,-1,-1,-1,-1,-1,-1,-1,-1],"loss_changes":[3.0083772E3,3.7112354E2,1.1413027E3,5.869568E1,4.2768164E2,4.371688E2,2.0591455E2,0E0,0E0,0E0,0E0,0E0,0E0,0E0,0E0],"parents":[2147483647,0,0,1,1,2,2,3,3,4,4,5,5,6,6],"right_children":[2,4,6,8,10,12,14,-1,-1,-1,-1,-1,-1,-1,-1],"split_conditions":[3.8507223E-1,1.7102545E-1,7.253394E-1,1.06727235E-1,2.359941E-1,6.4786917E-1,8.690963E-1,-2.8999364E-1,-1.9202657E-1,2.3633922E-2,-1.3446146E-1,4.5518953E-2,-5.5781063E-2,1.393392E-1,2.6945883E-1],"split_indices":[10,10,10,10,0,0,10,0,0,0,0,0,0,0,0],"split_type":[0,0,0,0,0,0,0,0,0,0,0,0,0,0,0],"sum_hessian":[3.9177824E4,1.1664982E4,2.7512842E4,2.2321675E3,9.432814E3,2.17856E4,5.727241E3,1.045508E3,1.1866595E3,1.9378724E3,7.4949424E3,1.682038E4,4.9652207E3,4.2510205E3,1.4762208E3],"tree_param":{"num_deleted":"0","num_feature":"11","num_nodes":"15","size_leaf_vector":"0"}},{"base_weights":[-1.196482E-3,-1.5528479E-1,3.0896983E-1,-4.5446888E-1,-6.497242E-2,2.4771221E-1,7.40332E-1,-8.201325E-1,-3.6682805E-1,4.8306663E-2,-2.258103E-1,3.2816112E-1,-2.2401085E-1,6.044368E-1,9.3671817E-1],"categories":[],"categories_nodes":[],"categories_segments":[],"categories_sizes":[],"default_left":[1,1,1,1,1,1,1,0,0,0,0,0,0,0,0],"id":6,"left_children":[1,3,5,7,9,11,13,-1,-1,-1,-1,-1,-1,-1,-1],"loss_changes":[1.8049674E3,6.817265E2,3.3103967E2,1.8718262E2,3.531474E2,4.1666992E2,4.1019287E1,0E0,0E0,0E0,0E0,0E0,0E0,0E0,0E0],"parents":[2147483647,0,0,1,1,2,2,3,3,4,4,5,5,6,6],"right_children":[2,4,6,8,10,12,14,-1,-1,-1,-1,-1,-1,-1,-1],"split_conditions":[5.9127545E-1,2.90531E-1,8.4775084E-1,1.2900834E-1,4.931509E-1,7.867679E-1,9.156682E-1,-2.4603976E-1,-1.1004842E-1,1.44919995E-2,-6.774309E-2,9.844834E-2,-6.720326E-2,1.8133105E-1,2.8101546E-1],"split_indices":[10,10,10,10,0,0,10,0,0,0,0,0,0,0,0],"split_type":[0,0,0,0,0,0,0,0,0,0,0,0,0,0,0],"sum_hessian":[3.7764348E4,2.5230516E4,1.2533833E4,5.8492534E3,1.9381262E4,1.0976621E4,1.5572122E3,1.129265E3,4.7199883E3,1.1372349E4,8.0089136E3,9.377639E3,1.5989829E3,9.227595E2,6.3445264E2],"tree_param":{"num_deleted":"0","num_feature":"11","num_nodes":"15","size_leaf_vector":"0"}},{"base_weights":[-6.9929345E-4,-2.628671E-1,1.1162459E-1,-7.152315E-1,-2.1794721E-1,5.499818E-2,4.6304768E-1,-8.8608056E-1,-5.4809016E-1,3.5185528E-1,-2.811291E-1,1.4606965E-1,-8.8397466E-2,6.505824E-1,3.0155233E-1],"categories":[],"categories_nodes":[],"categories_segments":[],"categories_sizes":[],"default_left":[1,1,1,1,1,1,1,0,0,0,0,0,0,0,0],"id":7,"left_children":[1,3,5,7,9,11,13,-1,-1,-1,-1,-1,-1,-1,-1],"loss_changes":[1.0781534E3,2.2298846E2,5.10028E2,2.7828125E1,3.5978375E2,2.882995E2,1.0752417E2,0E0,0E0,0E0,0E0,0E0,0E0,0E0,0E0],"parents":[2147483647,0,0,1,1,2,2,3,3,4,4,5,5,6,6],"right_children":[2,4,6,8,10,12,14,-1,-1,-1,-1,-1,-1,-1,-1],"split_conditions":[3.94514E-1,1.3452995E-1,7.585044E-1,8.424759E-2,1.8064862E-1,5.893101E-1,7.64658E-1,-2.6582417E-1,-1.6442706E-1,1.05556585E-1,-8.433873E-2,4.3820895E-2,-2.651924E-2,1.9517472E-1,9.04657E-2],"split_indices":[10,10,10,10,0,0,0,0,0,0,0,0,0,0,0],"split_type":[0,0,0,0,0,0,0,0,0,0,0,0,0,0,0],"sum_hessian":[3.661048E4,1.0980433E4,2.5630049E4,9.9051886E2,9.989914E3,2.2074277E4,3.5557725E3,4.8769928E2,5.0281958E2,9.9669574E2,8.993219E3,1.3500198E4,8.574078E3,1.6438462E3,1.9119261E3],"tree_param":{"num_deleted":"0","num_feature":"11","num_nodes":"15","size_leaf_vector":"0"}},{"base_weights":[-7.2501757E-4,-1.4971921E-1,1.331391E-1,-4.462738E-1,-1.0141082E-1,1.0814469E-1,7.043332E-1,-1.8490347E-1,-5.888803E-1,1.4731614E-1,-1.9449092E-1,1.3423817E-1,-3.2527235E-1,5.8367807E-1,9.585702E-1],"categories":[],"categories_nodes":[],"categories_segments":[],"categories_sizes":[],"default_left":[1,1,1,1,1,1,1,0,0,0,0,0,0,0,0],"id":8,"left_children":[1,3,5,7,9,11,13,-1,-1,-1,-1,-1,-1,-1,-1],"loss_changes":[7.1354285E2,2.42509E2,2.689618E2,8.8280334E1,3.371281E2,2.0424254E2,2.3669281E1,0E0,0E0,0E0,0E0,0E0,0E0,0E0,0E0],"parents":[2147483647,0,0,1,1,2,2,3,3,4,4,5,5,6,6],"right_children":[2,4,6,8,10,12,14,-1,-1,-1,-1,-1,-1,-1,-1],"split_conditions":[4.8693985E-1,2.1223462E-1,8.8026094E-1,1.668445E-1,3.10323E-1,8.2728684E-1,9.456608E-1,-5.5471044E-2,-1.766641E-1,4.4194844E-2,-5.834728E-2,4.0271454E-2,-9.758171E-2,1.7510343E-1,2.8757107E-1],"split_indices":[10,10,10,0,0,0,10,0,0,0,0,0,0,0,0],"split_type":[0,0,0,0,0,0,0,0,0,0,0,0,0,0,0],"sum_hessian":[3.5773566E4,1.6929965E4,1.8843604E4,2.3703945E3,1.455957E4,1.805475E4,7.888535E2,8.375757E2,1.5328187E3,3.9646692E3,1.05949E4,1.7030154E4,1.0245945E3,5.372043E2,2.5164919E2],"tree_param":{"num_deleted":"0","num_feature":"11","num_nodes":"15","size_leaf_vector":"0"}},{"base_weights":[-6.232248E-4,-6.3472755E-2,2.2974361E-1,-4.3485707E-1,-4.23775E-2,5.148862E-1,1.3855718E-1,-2.649074E-1,-6.797537E-1,6.0054548E-2,-1.2167318E-1,4.7778413E-1,8.9473534E-1,8.6379424E-2,6.764578E-1],"categories":[],"categories_nodes":[],"categories_segments":[],"categories_sizes":[],"default_left":[1,1,1,1,1,1,1,0,0,0,0,0,0,0,0],"id":9,"left_children":[1,3,5,7,9,11,13,-1,-1,-1,-1,-1,-1,-1,-1],"loss_changes":[5.0825534E2,2.1605429E2,1.9557248E2,6.1512207E1,2.1199072E2,2.5262115E1,1.599931E2,0E0,0E0,0E0,0E0,0E0,0E0,0E0,0E0],"parents":[2147483647,0,0,1,1,2,2,3,3,4,4,5,5,6,6],"right_children":[2,4,6,8,10,12,14,-1,-1,-1,-1,-1,-1,-1,-1],"split_conditions":[6.554409E-1,1.8059823E-1,6.067083E-1,2.077136E-1,4.333718E-1,8.05306E-1,8.959476E-1,-7.947222E-2,-2.0392613E-1,1.8016364E-2,-3.6501955E-2,1.4333524E-1,2.684206E-1,2.5913829E-2,2.0293735E-1],"split_indices":[10,10,0,0,0,10,10,0,0,0,0,0,0,0,0],"split_type":[0,0,0,0,0,0,0,0,0,0,0,0,0,0,0],"sum_hessian":[3.510226E4,2.7578828E4,7.5234336E3,1.4812711E3,2.6097559E4,1.8218405E3,5.7015933E3,8.756691E2,6.0560205E2,1.1387601E4,1.4709957E4,1.6617823E3,1.6005809E2,5.1984873E3,5.0310608E2],"tree_param":{"num_deleted":"0","num_feature":"11","num_nodes":"15","size_leaf_vector":"0"}},{"base_weights":[-1.2131078E-4,-1.7298636E-1,5.691206E-2,-7.839642E-2,-3.6230293E-1,3.3158954E-2,3.3104882E-1,-7.5317675E-1,-3.884351E-2,-6.154712E-1,-3.0235654E-1,7.501054E-2,-1.4268859E-1,4.4634613E-1,-6.0117584E-2],"categories":[],"categories_nodes":[],"categories_segments":[],"categories_sizes":[],"default_left":[1,1,1,1,1,1,1,0,0,0,0,0,0,0,0],"id":10,"left_children":[1,3,5,7,9,11,13,-1,-1,-1,-1,-1,-1,-1,-1],"loss_changes":[3.4155734E2,1.5387708E2,1.6961263E2,1.5296364E2,4.3266937E1,1.7644318E2,9.370122E1,0E0,0E0,0E0,0E0,0E0,0E0,0E0,0E0],"parents":[2147483647,0,0,1,1,2,2,3,3,4,4,5,5,6,6],"right_children":[2,4,6,8,10,12,14,-1,-1,-1,-1,-1,-1,-1,-1],"split_conditions":[3.6922374E-1,3.6806378E-1,7.90203E-1,8.424759E-2,2.517708E-1,6.8432283E-1,8.693471E-1,-2.2595303E-1,-1.1653053E-2,-1.8464136E-1,-9.070697E-2,2.2503162E-2,-4.2806577E-2,1.3390385E-1,-1.8035276E-2],"split_indices":[10,0,10,10,10,0,0,0,0,0,0,0,0,0,0],"split_type":[0,0,0,0,0,0,0,0,0,0,0,0,0,0,0],"sum_hessian":[3.464195E4,8.593496E3,2.6048453E4,5.73132E3,2.8621765E3,2.3972436E4,2.076017E3,3.163464E2,5.4149736E3,5.461949E2,2.3159817E3,1.9364316E4,4.6081196E3,1.6032992E3,4.7271777E2],"tree_param":{"num_deleted":"0","num_feature":"11","num_nodes":"15","size_leaf_vector":"0"}},{"base_weights":[-2.8376543E-4,-6.0605403E-2,1.179179E-1,-5.785115E-1,-5.1197324E-2,4.115199E-1,7.928292E-2,9.010579E-2,-6.583732E-1,3.1829363E-1,-6.858412E-2,6.0368204E-1,3.1912646E-1,6.1918978E-2,6.7839116E-1],"categories":[],"categories_nodes":[],"categories_segments":[],"categories_sizes":[],"default_left":[1,1,1,1,1,1,1,0,0,0,0,0,0,0,0],"id":11,"left_children":[1,3,5,7,9,11,13,-1,-1,-1,-1,-1,-1,-1,-1],"loss_changes":[2.4394026E2,1.1034455E2,1.3109822E2,2.1634735E1,1.4295787E2,2.3670593E1,1.0624549E2,0E0,0E0,0E0,0E0,0E0,0E0,0E0,0E0],"parents":[2147483647,0,0,1,1,2,2,3,3,4,4,5,5,6,6],"right_children":[2,4,6,8,10,12,14,-1,-1,-1,-1,-1,-1,-1,-1],"split_conditions":[5.810227E-1,1.06727235E-1,4.8456317E-1,4.9312904E-2,1.6881225E-1,3.8839078E-1,9.185498E-1,2.7031736E-2,-1.9751196E-1,9.5488094E-2,-2.0575237E-2,1.8110462E-1,9.573794E-2,1.8575694E-2,2.0351736E-1],"split_indices":[10,10,0,0,0,0,10,0,0,0,0,0,0,0,0],"split_type":[0,0,0,0,0,0,0,0,0,0,0,0,0,0,0],"sum_hessian":[3.4210652E4,2.265146E4,1.155919E4,4.03057E2,2.2248402E4,1.3430662E3,1.0216124E4,4.2991962E1,3.6006506E2,9.990949E2,2.1249309E4,4.3428864E2,9.087775E2,9.929443E3,2.8668137E2],"tree_param":{"num_deleted":"0","num_feature":"11","num_nodes":"15","size_leaf_vector":"0"}},{"base_weights":[-1.1321727E-4,-1.5193821E-1,3.0065011E-2,-8.130004E-3,-2.883443E-1,4.78339E-3,1.7084008E-1,-8.1763405E-1,2.9488288E-2,-4.9337184E-1,-2.1547487E-1,1.2538461E-1,-4.6673793E-2,3.2462862E-1,-1.0746835E-2],"categories":[],"categories_nodes":[],"categories_segments":[],"categories_sizes":[],"default_left":[1,1,1,1,1,1,1,0,0,0,0,0,0,0,0],"id":12,"left_children":[1,3,5,7,9,11,13,-1,-1,-1,-1,-1,-1,-1,-1],"loss_changes":[1.5524002E2,1.1020201E2,1.0059075E2,8.333585E1,4.296895E1,1.4870781E2,1.2017045E2,0E0,0E0,0E0,0E0,0E0,0E0,0E0,0E0],"parents":[2147483647,0,0,1,1,2,2,3,3,4,4,5,5,6,6],"right_children":[2,4,6,8,10,12,14,-1,-1,-1,-1,-1,-1,-1,-1],"split_conditions":[3.1823596E-1,2.6665872E-1,7.121855E-1,5.330706E-2,2.2908044E-1,4.2329678E-1,7.623598E-1,-2.4529022E-1,8.846487E-3,-1.4801157E-1,-6.464247E-2,3.7615385E-2,-1.4002139E-2,9.738859E-2,-3.2240506E-3],"split_indices":[10,0,10,10,10,0,0,0,0,0,0,0,0,0,0],"split_type":[0,0,0,0,0,0,0,0,0,0,0,0,0,0,0],"sum_hessian":[3.3879816E4,5.6169946E3,2.8262822E4,2.734824E3,2.8821704E3,2.3960771E4,4.3020513E3,1.2052497E2,2.614299E3,7.542421E2,2.1279285E3,7.165473E3,1.6795299E4,2.328892E3,1.9731594E3],"tree_param":{"num_deleted":"0","num_feature":"11","num_nodes":"15","size_leaf_vector":"0"}},{"base_weights":[-2.3004736E-4,-7.3369205E-2,4.4505302E-2,-4.535133E-2,-3.1923878E-1,3.0244035E-1,2.9612107E-2,-5.4834936E-2,6.4238864E-1,-2.665366E-1,-5.07354E-1,2.651809E-1,8.892354E-1,2.4321364E-2,8.009799E-1],"categories":[],"categories_nodes":[],"categories_segments":[],"categories_sizes":[],"default_left":[1,1,1,1,1,1,1,0,0,0,0,0,0,0,0],"id":13,"left_children":[1,3,5,7,9,11,13,-1,-1,-1,-1,-1,-1,-1,-1],"loss_changes":[1.0983018E2,8.774455E1,8.000196E1,7.463311E1,1.2783279E1,2.4620193E1,8.034693E1,0E0,0E0,0E0,0E0,0E0,0E0,0E0,0E0],"parents":[2147483647,0,0,1,1,2,2,3,3,4,4,5,5,6,6],"right_children":[2,4,6,8,10,12,14,-1,-1,-1,-1,-1,-1,-1,-1],"split_conditions":[4.426581E-1,5.402448E-1,3.3747727E-1,7.023795E-1,4.5E0,5.789547E-1,9.452829E-1,-1.6450481E-2,1.927166E-1,-7.996098E-2,-1.5220621E-1,7.955427E-2,2.6677063E-1,7.2964095E-3,2.4029398E-1],"split_indices":[10,0,0,1,4,1,10,0,0,0,0,0,0,0,0],"split_type":[0,0,0,0,0,0,0,0,0,0,0,0,0,0,0],"sum_hessian":[3.356565E4,1.2738483E4,2.0827166E4,1.14364375E4,1.3020459E3,1.1358632E3,1.9691303E4,1.1281787E4,1.546502E2,1.018985E3,2.830609E2,1.0694111E3,6.6451996E1,1.9558188E4,1.331163E2],"tree_param":{"num_deleted":"0","num_feature":"11","num_nodes":"15","size_leaf_vector":"0"}},{"base_weights":[-1.3900445E-4,-8.21254E-3,2.7452314E-1,6.0550836E-3,-1.8322858E-1,4.5691583E-1,-1.525194E-1,-1.9092308E-2,1.4481784E-1,-1.5175721E-1,-6.5578663E-1,3.8890162E-1,7.728652E-1,-4.3185848E-1,7.403635E-1],"categories":[],"categories_nodes":[],"categories_segments":[],"categories_sizes":[],"default_left":[1,1,1,1,1,1,1,0,0,0,0,0,0,0,0],"id":14,"left_children":[1,3,5,7,9,11,13,-1,-1,-1,-1,-1,-1,-1,-1],"loss_changes":[7.3929756E1,8.087422E1,7.4220924E1,1.04503494E2,3.6207428E1,1.4039902E1,7.1570114E1,0E0,0E0,0E0,0E0,0E0,0E0,0E0,0E0],"parents":[2147483647,0,0,1,1,2,2,3,3,4,4,5,5,6,6],"right_children":[2,4,6,8,10,12,14,-1,-1,-1,-1,-1,-1,-1,-1],"split_conditions":[8.3643186E-1,7.600465E-1,8.772118E-1,6.435812E-1,8.9080036E-1,9.101416E-1,9.4906956E-1,-5.7276925E-3,4.3445356E-2,-4.5527164E-2,-1.96736E-1,1.1667049E-1,2.3185956E-1,-1.2955755E-1,2.2210905E-1],"split_indices":[10,0,0,10,0,10,10,0,0,0,0,0,0,0,0],"split_type":[0,0,0,0,0,0,0,0,0,0,0,0,0,0,0],"sum_hessian":[3.33373E4,3.2386295E4,9.510064E2,2.9946008E4,2.440287E3,6.6633875E2,2.8466763E2,2.5352367E4,4.5936406E3,2.2891555E3,1.5113179E2,5.501412E2,1.1619758E2,2.1722498E2,6.744266E1],"tree_param":{"num_deleted":"0","num_feature":"11","num_nodes":"15","size_leaf_vector":"0"}},{"base_weights":[3.1054078E-4,-1.2848955E-1,1.58339E-2,5.24385E-2,-2.59553E-1,5.405218E-2,-4.1088942E-2,-7.055623E-1,1.07231736E-1,-6.836074E-1,-2.2500515E-1,2.843012E-2,2.5143033E-1,-2.905389E-1,-8.474936E-3],"categories":[],"categories_nodes":[],"categories_segments":[],"categories_sizes":[],"default_left":[1,1,1,1,1,1,1,0,0,0,0,0,0,0,0],"id":15,"left_children":[1,3,5,7,9,11,13,-1,-1,-1,-1,-1,-1,-1,-1],"loss_changes":[6.6347725E1,8.4650635E1,6.442818E1,6.238444E1,3.0172089E1,8.960054E1,9.678395E1,0E0,0E0,0E0,0E0,0E0,0E0,0E0,0E0],"parents":[2147483647,0,0,1,1,2,2,3,3,4,4,5,5,6,6],"right_children":[2,4,6,8,10,12,14,-1,-1,-1,-1,-1,-1,-1,-1],"split_conditions":[2.72963E-1,2.1510333E-1,5.7283646E-1,5.69859E-2,1.4211908E-1,6.1049384E-1,4.8654726E-1,-2.116687E-1,3.216952E-2,-2.0508222E-1,-6.7501545E-2,8.529036E-3,7.5429104E-2,-8.7161675E-2,-2.5424808E-3],"split_indices":[10,0,0,10,10,10,1,0,0,0,0,0,0,0,0],"split_type":[0,0,0,0,0,0,0,0,0,0,0,0,0,0,0],"sum_hessian":[3.3181633E4,3.568217E3,2.9613416E4,1.499212E3,2.0690051E3,1.7717709E4,1.1895708E4,1.0026637E2,1.3989457E3,1.544488E2,1.9145563E3,1.5683009E4,2.0346993E3,1.3745419E3,1.0521166E4],"tree_param":{"num_deleted":"0","num_feature":"11","num_nodes":"15","size_leaf_vector":"0"}},{"base_weights":[7.832269E-5,-5.140058E-3,2.8202865E-1,-1.1811306E-4,-3.138413E-1,4.0103975E-1,-5.0002694E-1,-1.3465084E-2,1.1182916E-1,-2.9455793E-1,-1.3133619E0,2.75038E-1,6.574782E-1,-1.1420096E0,6.2125653E-1],"categories":[],"categories_nodes":[],"categories_segments":[],"categories_sizes":[],"default_left":[1,1,1,1,1,1,1,0,0,0,0,0,0,0,0],"id":16,"left_children":[1,3,5,7,9,11,13,-1,-1,-1,-1,-1,-1,-1,-1],"loss_changes":[4.8595955E1,5.027331E1,5.6062424E1,4.7680714E1,9.6183815E0,1.6668907E1,5.8093544E1,0E0,0E0,0E0,0E0,0E0,0E0,0E0,0E0],"parents":[2147483647,0,0,1,1,2,2,3,3,4,4,5,5,6,6],"right_children":[2,4,6,8,10,12,14,-1,-1,-1,-1,-1,-1,-1,-1],"split_conditions":[8.6042476E-1,8.575645E-1,9.275142E-1,7.030597E-1,3.52E2,9.101416E-1,9.5502853E-1,-4.0395255E-3,3.354875E-2,-8.836738E-2,-3.9400858E-1,8.25114E-2,1.9724347E-1,-3.426029E-1,1.8637696E-1],"split_indices":[10,0,0,10,9,10,10,0,0,0,0,0,0,0,0],"split_type":[0,0,0,0,0,0,0,0,0,0,0,0,0,0,0],"sum_hessian":[3.3026734E4,3.2427543E4,5.991923E2,3.1909441E4,5.1810175E2,5.2047504E2,7.87173E1,2.8511074E4,3.3983674E3,5.0956555E2,8.536167E0,3.5038495E2,1.700901E2,5.0045586E1,2.8671719E1],"tree_param":{"num_deleted":"0","num_feature":"11","num_nodes":"15","size_leaf_vector":"0"}},{"base_weights":[3.35357E-4,-3.365228E-1,4.160057E-3,1.8299538E-1,-4.7330728E-1,4.1653955E-1,2.9710762E-4,-6.291825E-1,9.2755485E-1,-7.069131E-1,-3.0730847E-1,1.3066667E0,3.2945567E-1,-7.5422786E-2,1.5209132E-2],"categories":[],"categories_nodes":[],"categories_segments":[],"categories_sizes":[],"default_left":[1,1,1,1,1,1,1,0,0,0,0,0,0,0,0],"id":17,"left_children":[1,3,5,7,9,11,13,-1,-1,-1,-1,-1,-1,-1,-1],"loss_changes":[4.241586E1,2.6351078E1,5.185546E1,4.760128E1,1.113887E1,2.2987034E1,3.6416985E1,0E0,0E0,0E0,0E0,0E0,0E0,0E0,0E0],"parents":[2147483647,0,0,1,1,2,2,3,3,4,4,5,5,6,6],"right_children":[2,4,6,8,10,12,14,-1,-1,-1,-1,-1,-1,-1,-1],"split_conditions":[1.1904354E-1,7.901774E-2,1.19273245E-1,4.7570564E-2,8.430524E-2,6.341514E-2,3.4122053E-1,-1.8875477E-1,2.7826646E-1,-2.1207394E-1,-9.2192546E-2,3.9200005E-1,9.8836705E-2,-2.2626836E-2,4.5627397E-3],"split_indices":[10,0,0,10,10,0,1,0,0,0,0,0,0,0,0],"split_type":[0,0,0,0,0,0,0,0,0,0,0,0,0,0,0],"sum_hessian":[3.291974E4,3.6859915E2,3.2551139E4,7.675183E1,2.9184732E2,3.0110028E2,3.2250037E4,3.678313E1,3.9968697E1,1.1988197E2,1.7196535E2,2.5584442E1,2.7551584E2,5.305557E3,2.694448E4],"tree_param":{"num_deleted":"0","num_feature":"11","num_nodes":"15","size_leaf_vector":"0"}},{"base_weights":[2.114895E-5,8.009716E-2,-1.48728E-2,-9.561072E-2,1.3077071E-1,-1.3067716E-1,5.142188E-3,5.86199E-1,-1.269344E-1,1.18593186E-1,7.4477166E-1,-7.0998974E-2,-2.5012097E-1,-3.3015266E-1,1.3059671E-2],"categories":[],"categories_nodes":[],"categories_segments":[],"categories_sizes":[],"default_left":[1,1,1,1,1,1,1,0,0,0,0,0,0,0,0],"id":18,"left_children":[1,3,5,7,9,11,13,-1,-1,-1,-1,-1,-1,-1,-1],"loss_changes":[3.920623E1,4.5915295E1,6.424567E1,2.4732534E1,2.9833702E1,2.9098526E1,6.274568E1,0E0,0E0,0E0,0E0,0E0,0E0,0E0,0E0],"parents":[2147483647,0,0,1,1,2,2,3,3,4,4,5,5,6,6],"right_children":[2,4,6,8,10,12,14,-1,-1,-1,-1,-1,-1,-1,-1],"split_conditions":[2.9634452E-1,2.0045602E-1,3.7172872E-1,5.4741632E-2,6.3808393E-1,4.4262055E-1,2.722255E-1,1.758597E-1,-3.808032E-2,3.5577957E-2,2.2343151E-1,-2.1299694E-2,-7.5036295E-2,-9.9045806E-2,3.9179013E-3],"split_indices":[0,10,10,0,1,0,1,0,0,0,0,0,0,0,0],"split_type":[0,0,0,0,0,0,0,0,0,0,0,0,0,0,0],"sum_hessian":[3.2871266E4,5.154448E3,2.7716818E4,1.1535809E3,4.0008674E3,4.083668E3,2.363315E4,4.9891804E1,1.1036891E3,3.924231E3,7.6636475E1,2.7241729E3,1.359495E3,5.442486E2,2.3088902E4],"tree_param":{"num_deleted":"0","num_feature":"11","num_nodes":"15","size_leaf_vector":"0"}},{"base_weights":[-1.2683473E-4,1.8752877E-2,-6.302882E-2,4.4814516E-3,1.9852574E-1,-2.323238E-1,-2.1700341E-2,-2.3476662E-2,9.8023616E-2,3.9702594E-1,1.0911568E-1,-4.8225418E-1,-1.8039475E-1,-2.8209979E-2,8.0911744E-1],"categories":[],"categories_nodes":[],"categories_segments":[],"categories_sizes":[],"default_left":[1,1,1,1,1,1,1,0,0,0,0,0,0,0,0],"id":19,"left_children":[1,3,5,7,9,11,13,-1,-1,-1,-1,-1,-1,-1,-1],"loss_changes":[3.8916447E1,6.46647E1,5.2925476E1,6.1073914E1,3.2856247E1,1.917736E1,3.2914906E1,0E0,0E0,0E0,0E0,0E0,0E0,0E0,0E0],"parents":[2147483647,0,0,1,1,2,2,3,3,4,4,5,5,6,6],"right_children":[2,4,6,8,10,12,14,-1,-1,-1,-1,-1,-1,-1,-1],"split_conditions":[6.5132135E-1,6.467937E-1,5.7112974E-1,5.5699646E-1,4.99445E-1,4.0060622E-1,9.578804E-1,-7.042999E-3,2.9407086E-2,1.1910779E-1,3.2734707E-2,-1.4467625E-1,-5.411843E-2,-8.462994E-3,2.4273524E-1],"split_indices":[0,1,1,10,0,1,10,0,0,0,0,0,0,0,0],"split_type":[0,0,0,0,0,0,0,0,0,0,0,0,0,0,0],"sum_hessian":[3.2767781E4,2.5203717E4,7.564065E3,2.3351002E4,1.8527145E3,1.4833121E3,6.080753E3,1.797834E4,5.372662E3,5.74289E2,1.2784255E3,2.5374939E2,1.2295627E3,6.034438E3,4.6315083E1],"tree_param":{"num_deleted":"0","num_feature":"11","num_nodes":"15","size_leaf_vector":"0"}},{"base_weights":[1.3423292E-5,4.664224E-2,-2.0312026E-2,3.1068943E-2,3.3830917E-1,-2.4125226E-1,-9.120281E-3,1.19810095E-2,2.4675718E-1,4.3894655E-1,1.2786855E-1,-3.674605E-1,-6.586204E-2,-2.1797034E-1,7.240434E-4],"categories":[],"categories_nodes":[],"categories_segments":[],"categories_sizes":[],"default_left":[1,1,1,1,1,1,1,0,0,0,0,0,0,0,0],"id":20,"left_children":[1,3,5,7,9,11,13,-1,-1,-1,-1,-1,-1,-1,-1],"loss_changes":[3.0979479E1,4.506173E1,5.6287415E1,3.8784084E1,1.0593769E1,2.426963E1,4.4549046E1,0E0,0E0,0E0,0E0,0E0,0E0,0E0,0E0],"parents":[2147483647,0,0,1,1,2,2,3,3,4,4,5,5,6,6],"right_children":[2,4,6,8,10,12,14,-1,-1,-1,-1,-1,-1,-1,-1],"split_conditions":[3.9424267E-1,5.803747E-1,3.4104264E-1,5.2726746E-1,7.5E0,6.5E0,3.2631326E-1,3.594303E-3,7.402716E-2,1.3168398E-1,3.8360566E-2,-1.1023815E-1,-1.9758612E-2,-6.539111E-2,2.1721303E-4],"split_indices":[0,1,1,10,7,7,10,0,0,0,0,0,0,0,0],"split_type":[0,0,0,0,0,0,0,0,0,0,0,0,0,0,0],"sum_hessian":[3.2685336E4,9.921964E3,2.2763371E4,9.420093E3,5.0187103E2,1.0964961E3,2.1666875E4,8.655184E3,7.649092E2,3.387753E2,1.6309573E2,6.3701465E2,4.5948148E2,9.7436255E2,2.0692514E4],"tree_param":{"num_deleted":"0","num_feature":"11","num_nodes":"15","size_leaf_vector":"0"}},{"base_weights":[-1.9653937E-5,-6.463651E-1,1.4076824E-3,1.02142446E-1,-7.284261E-1,4.141818E-1,-9.312721E-4,-4.4360083E-1,1.8445178E0,-5.90146E-1,-9.368244E-1,2.8407583E-1,1.3823082E0,-2.3350678E-1,3.0214114E-3],"categories":[],"categories_nodes":[],"categories_segments":[],"categories_sizes":[],"default_left":[1,1,1,1,1,1,1,0,0,0,0,0,0,0,0],"id":21,"left_children":[1,3,5,7,9,11,13,-1,-1,-1,-1,-1,-1,-1,-1],"loss_changes":[3.0099184E1,4.4901104E0,3.1430075E1,8.406143E0,1.3176727E0,2.2711782E1,2.9759912E1,0E0,0E0,0E0,0E0,0E0,0E0,0E0,0E0],"parents":[2147483647,0,0,1,1,2,2,3,3,4,4,5,5,6,6],"right_children":[2,4,6,8,10,12,14,-1,-1,-1,-1,-1,-1,-1,-1],"split_conditions":[5.330706E-2,2.659005E-2,9.1096915E-2,2.3888618E-2,2.5E0,3.064368E-1,1.5738171E-1,-1.3308026E-1,5.533554E-1,-1.7704381E-1,-2.810473E-1,8.522275E-2,4.146925E-1,-7.0052035E-2,9.0642343E-4],"split_indices":[10,0,0,10,2,1,10,0,0,0,0,0,0,0,0],"split_type":[0,0,0,0,0,0,0,0,0,0,0,0,0,0,0],"sum_hessian":[3.2624004E4,7.088981E1,3.2553113E4,6.9798036E0,6.3910004E1,1.8242839E2,3.2370686E4,5.882655E0,1.0971488E0,4.0721546E1,2.3188456E1,1.6195656E2,2.0471827E1,5.399843E2,3.1830701E4],"tree_param":{"num_deleted":"0","num_feature":"11","num_nodes":"15","size_leaf_vector":"0"}},{"base_weights":[-1.3015768E-4,-8.874625E-3,9.63677E-2,5.8863144E-3,-1.0679517E-1,1.8843764E-1,-6.96994E-2,2.4674651E-3,3.4714314E-1,-3.224097E-1,-8.582633E-2,1.2601173E-1,4.246697E-1,-9.968242E-2,7.1025074E-1],"categories":[],"categories_nodes":[],"categories_segments":[],"categories_sizes":[],"default_left":[1,1,1,1,1,1,1,0,0,0,0,0,0,0,0],"id":22,"left_children":[1,3,5,7,9,11,13,-1,-1,-1,-1,-1,-1,-1,-1],"loss_changes":[2.7504807E1,4.31995E1,4.1422825E1,3.0301962E1,1.7673592E1,2.5644817E1,2.2677563E1,0E0,0E0,0E0,0E0,0E0,0E0,0E0,0E0],"parents":[2147483647,0,0,1,1,2,2,3,3,4,4,5,5,6,6],"right_children":[2,4,6,8,10,12,14,-1,-1,-1,-1,-1,-1,-1,-1],"split_conditions":[7.488662E-1,6.8432283E-1,8.213003E-1,7.833694E-1,2.5E0,8.3602357E-1,9.578804E-1,7.402396E-4,1.0414295E-1,-9.672291E-2,-2.57479E-2,3.780352E-2,1.2740092E-1,-2.9904727E-2,2.1307524E-1],"split_indices":[10,0,0,1,7,10,10,0,0,0,0,0,0,0,0],"split_type":[0,0,0,0,0,0,0,0,0,0,0,0,0,0,0],"sum_hessian":[3.259348E4,2.9886156E4,2.7073232E3,2.5971977E4,3.9141807E3,1.7416134E3,9.657098E2,2.5715355E4,2.566196E2,3.4564728E2,3.5685334E3,1.3787917E3,3.6282162E2,9.307999E2,3.4909832E1],"tree_param":{"num_deleted":"0","num_feature":"11","num_nodes":"15","size_leaf_vector":"0"}},{"base_weights":[6.8466834E-5,1.4605683E-3,-6.077505E-1,-1.2989216E-3,4.1233653E-1,-7.551284E-1,6.520883E-1,8.5567E-3,-8.109897E-2,3.1289792E-1,7.177479E-1,-6.5846425E-1,-2.613368E0,8.4146166E-1,1.4072168E-1],"categories":[],"categories_nodes":[],"categories_segments":[],"categories_sizes":[],"default_left":[1,1,1,1,1,1,1,0,0,0,0,0,0,0,0],"id":23,"left_children":[1,3,5,7,9,11,13,-1,-1,-1,-1,-1,-1,-1,-1],"loss_changes":[2.7540184E1,3.6819115E1,1.4301727E1,2.5370731E1,6.354801E0,1.032283E1,6.878593E-1,0E0,0E0,0E0,0E0,0E0,0E0,0E0,0E0],"parents":[2147483647,0,0,1,1,2,2,3,3,4,4,5,5,6,6],"right_children":[2,4,6,8,10,12,14,-1,-1,-1,-1,-1,-1,-1,-1],"split_conditions":[9.387725E-1,8.959476E-1,9.775828E-1,2.5E0,9.413606E-1,9.756186E-1,9.747307E-1,2.5670102E-3,-2.432969E-2,9.386938E-2,2.1532439E-1,-1.9753928E-1,-7.8401047E-1,2.5243852E-1,4.2216506E-2],"split_indices":[0,10,10,3,10,0,0,0,0,0,0,0,0,0,0],"split_type":[0,0,0,0,0,0,0,0,0,0,0,0,0,0,0],"sum_hessian":[3.2545756E4,3.247238E4,7.337463E1,3.2256738E4,2.156431E2,6.604876E1,7.325873E0,2.871163E4,3.5451074E3,1.6420444E2,5.1438663E1,6.407022E1,1.9785333E0,4.8750057E0,2.450867E0],"tree_param":{"num_deleted":"0","num_feature":"11","num_nodes":"15","size_leaf_vector":"0"}},{"base_weights":[1.4335316E-4,2.7283862E-2,-2.3912959E-2,7.2025033E-3,1.580921E-1,-1.7514087E-1,-9.694557E-3,-1.1956587E-2,1.2822364E-1,2.2898822E-1,6.796796E-2,-1.1664228E-1,-4.3679866E-1,-1.2806715E-1,5.91723E-3],"categories":[],"categories_nodes":[],"categories_segments":[],"categories_sizes":[],"default_left":[1,1,1,1,1,1,1,0,0,0,0,0,0,0,0],"id":24,"left_children":[1,3,5,7,9,11,13,-1,-1,-1,-1,-1,-1,-1,-1],"loss_changes":[2.1250547E1,4.0172142E1,3.7098904E1,3.0745176E1,1.2989014E1,2.2645275E1,2.9148571E1,0E0,0E0,0E0,0E0,0E0,0E0,0E0,0E0],"parents":[2147483647,0,0,1,1,2,2,3,3,4,4,5,5,6,6],"right_children":[2,4,6,8,10,12,14,-1,-1,-1,-1,-1,-1,-1,-1],"split_conditions":[4.849309E-1,5.2980924E-1,4.2364454E-1,5.2943015E-1,7.5E0,1.195E2,4.399442E-1,-3.5869763E-3,3.8467094E-2,6.869647E-2,2.0390388E-2,-3.4992687E-2,-1.310396E-1,-3.842015E-2,1.7751692E-3],"split_indices":[0,1,1,10,7,8,10,0,0,0,0,0,0,0,0],"split_type":[0,0,0,0,0,0,0,0,0,0,0,0,0,0,0],"sum_hessian":[3.254591E4,1.5292577E4,1.7253332E4,1.3258257E4,2.03432E3,1.4817731E3,1.577156E4,1.1446967E4,1.8112902E3,1.1377604E3,8.965595E2,1.2122069E3,2.695662E2,1.8368542E3,1.3934705E4],"tree_param":{"num_deleted":"0","num_feature":"11","num_nodes":"15","size_leaf_vector":"0"}}]},"name":"gbtree"},"learner_model_param":{"base_score":"5E-1","num_class":"0","num_feature":"11","num_target":"1"},"objective":{"name":"binary:logistic","reg_loss_param":{"scale_pos_weight":"1"}}},"version":[1,6,2]}