{"learner":{"attributes":{"best_iteration":"24","best_ntree_limit":"25","scikit_learn":"{\"use_label_encoder\": false, \"n_estimators\": 25, \"objective\": \"binary:logistic\", \"max_depth\": 3, \"max_leaves\": null, \"max_bin\": null, \"grow_policy\": null, \"learning_rate\": null, \"verbosity\": null, \"booster\": null, \"tree_method\": null, \"gamma\": null, \"min_child_weight\": 0.97, \"max_delta_step\": null, \"subsample\": null, \"sampling_method\": null, \"colsample_bytree\": null, \"colsample_bylevel\": null, \"colsample_bynode\": null, \"reg_alpha\": null, \"reg_lambda\": null, \"scale_pos_weight\": null, \"base_score\": null, \"missing\": NaN, \"num_parallel_tree\": null, \"random_state\": null, \"n_jobs\": null, \"monotone_constraints\": null, \"interaction_constraints\": null, \"importance_type\": null, \"gpu_id\": null, \"validate_parameters\": null, \"predictor\": null, \"enable_categorical\": false, \"max_cat_to_onehot\": null, \"eval_metric\": null, \"early_stopping_rounds\": null, \"callbacks\": null, \"classes_\": [0, 1], \"n_classes_\": 2, \"_estimator_type\": \"classifier\"}"},"feature_names":["player_one_elo_proba","player_one_surface_win_proba","player_one_hand","player_two_hand","round","player_one_rest","player_two_rest","tourney_level","player_one_mp","player_two_mp","player_one_TS_proba"],"feature_types":["float","float","float","float","float","float","float","float","float","float","float"],"gradient_booster":{"model":{"gbtree_model_param":{"num_parallel_tree":"1","num_trees":"25","size_leaf_vector":"0"},"tree_info":[0,0,0,0,0,0,0,0,0,0,0,0,0,0,0,0,0,0,0,0,0,0,0,0,0],"trees":[{"base_weights":[-3.799924E-3,-9.0312755E-1,8.464711E-1,-1.4346938E0,-5.049211E-1,4.462158E-1,1.4266924E0,-1.7215835E0,-1.2231585E0,-7.144158E-1,-2.6521638E-1,2.5038E-1,7.466367E-1,1.1978712E0,1.7017903E0],"categories":[],"categories_nodes":[],"categories_segments":[],"categories_sizes":[],"default_left":[1,1,1,1,1,1,1,0,0,0,0,0,0,0,0],"id":0,"left_children":[1,3,5,7,9,11,13,-1,-1,-1,-1,-1,-1,-1,-1],"loss_changes":[3.8235137E4,5.1429316E3,5.9683105E3,6.294531E2,6.9753613E2,8.94739E2,6.5839844E2,0E0,0E0,0E0,0E0,0E0,0E0,0E0,0E0],"parents":[2147483647,0,0,1,1,2,2,3,3,4,4,5,5,6,6],"right_children":[2,4,6,8,10,12,14,-1,-1,-1,-1,-1,-1,-1,-1],"split_conditions":[4.9229816E-1,3.1560063E-1,6.8163097E-1,1.9635795E-1,4.172861E-1,5.996752E-1,7.936264E-1,-5.164751E-1,-3.6694756E-1,-2.1432474E-1,-7.9564914E-2,7.5114004E-2,2.2399102E-1,3.5936138E-1,5.1053715E-1],"split_indices":[10,10,10,10,10,10,10,0,0,0,0,0,0,0,0],"split_type":[0,0,0,0,0,0,0,0,0,0,0,0,0,0,0],"sum_hessian":[5E4,2.4299E4,2.5701E4,1.040575E4,1.389325E4,1.521025E4,1.049075E4,4.41325E3,5.9925E3,7.41275E3,6.4805E3,9.209E3,6.00125E3,5.73E3,4.76075E3],"tree_param":{"num_deleted":"0","num_feature":"11","num_nodes":"15","size_leaf_vector":"0"}},{"base_weights":[-2.738025E-3,-5.9764117E-1,6.744677E-1,-9.871978E-1,-2.4897897E-1,3.9021173E-1,1.082886E0,-1.2251613E0,-7.4803615E-1,-3.9331082E-1,-8.752823E-2,2.7104208E-1,6.1260194E-1,9.368298E-1,1.3622113E0],"categories":[],"categories_nodes":[],"categories_segments":[],"categories_sizes":[],"default_left":[1,1,1,1,1,1,1,0,0,0,0,0,0,0,0],"id":1,"left_children":[1,3,5,7,9,11,13,-1,-1,-1,-1,-1,-1,-1,-1],"loss_changes":[1.9685266E4,3.5327764E3,2.652419E3,6.9825E2,3.198556E2,3.569458E2,3.812666E2,0E0,0E0,0E0,0E0,0E0,0E0,0E0,0E0],"parents":[2147483647,0,0,1,1,2,2,3,3,4,4,5,5,6,6],"right_children":[2,4,6,8,10,12,14,-1,-1,-1,-1,-1,-1,-1,-1],"split_conditions":[5.179066E-1,3.516569E-1,6.923617E-1,2.4470991E-1,4.4399813E-1,6.232847E-1,8.297456E-1,-3.675484E-1,-2.2441085E-1,-1.1799325E-1,-2.625847E-2,8.131263E-2,1.8378058E-1,2.8104895E-1,4.0866342E-1],"split_indices":[10,10,10,10,10,10,10,0,0,0,0,0,0,0,0],"split_type":[0,0,0,0,0,0,0,0,0,0,0,0,0,0,0],"sum_hessian":[4.886036E4,2.601082E4,2.2849541E4,1.2284096E4,1.3726726E4,1.347382E4,9.37572E3,6.155406E3,6.1286904E3,7.2468423E3,6.4798833E3,8.774272E3,4.699548E3,6.159394E3,3.2163257E3],"tree_param":{"num_deleted":"0","num_feature":"11","num_nodes":"15","size_leaf_vector":"0"}},{"base_weights":[-1.9632145E-3,-4.1132164E-1,5.451598E-1,-8.9316934E-1,-2.1890064E-1,3.6193573E-1,9.590482E-1,-1.1399326E0,-7.3964554E-1,-4.4816098E-1,-1.0677343E-1,2.3711222E-1,4.880878E-1,8.4743845E-1,1.2146491E0],"categories":[],"categories_nodes":[],"categories_segments":[],"categories_sizes":[],"default_left":[1,1,1,1,1,1,1,0,0,0,0,0,0,0,0],"id":2,"left_children":[1,3,5,7,9,11,13,-1,-1,-1,-1,-1,-1,-1,-1],"loss_changes":[1.0475245E4,2.4803442E3,1.5176411E3,2.8838525E2,4.9146033E2,2.1839392E2,1.7417725E2,0E0,0E0,0E0,0E0,0E0,0E0,0E0,0E0],"parents":[2147483647,0,0,1,1,2,2,3,3,4,4,5,5,6,6],"right_children":[2,4,6,8,10,12,14,-1,-1,-1,-1,-1,-1,-1,-1],"split_conditions":[5.384767E-1,2.8970438E-1,7.404671E-1,1.7300121E-1,3.8765198E-1,6.2388575E-1,8.671572E-1,-3.419798E-1,-2.2189367E-1,-1.344483E-1,-3.203203E-2,7.113367E-2,1.4642635E-1,2.5423154E-1,3.6439472E-1],"split_indices":[10,10,10,10,10,10,10,0,0,0,0,0,0,0,0],"split_type":[0,0,0,0,0,0,0,0,0,0,0,0,0,0,0],"sum_hessian":[4.676887E4,2.6752701E4,2.001617E4,7.6335747E3,1.9119125E4,1.3875503E4,6.140667E3,2.9252732E3,4.7083013E3,6.2786064E3,1.284052E4,6.975925E3,6.8995776E3,4.277281E3,1.863386E3],"tree_param":{"num_deleted":"0","num_feature":"11","num_nodes":"15","size_leaf_vector":"0"}},{"base_weights":[-1.4375726E-3,-4.1882583E-1,3.0520353E-1,-7.9496133E-1,-2.7421275E-1,1.5934257E-1,7.295089E-1,-1.0644075E0,-6.7212003E-1,-3.7153783E-1,-1.7492849E-1,2.9308885E-2,2.8018552E-1,6.2850195E-1,1.056142E0],"categories":[],"categories_nodes":[],"categories_segments":[],"categories_sizes":[],"default_left":[1,1,1,1,1,1,1,0,0,0,0,0,0,0,0],"id":3,"left_children":[1,3,5,7,9,11,13,-1,-1,-1,-1,-1,-1,-1,-1],"loss_changes":[5.7155625E3,1.028543E3,1.593156E3,1.731106E2,1.3195276E2,3.0105356E2,2.1660767E2,0E0,0E0,0E0,0E0,0E0,0E0,0E0,0E0],"parents":[2147483647,0,0,1,1,2,2,3,3,4,4,5,5,6,6],"right_children":[2,4,6,8,10,12,14,-1,-1,-1,-1,-1,-1,-1,-1],"split_conditions":[4.6114513E-1,2.5538805E-1,7.1471345E-1,1.3575844E-1,3.7735522E-1,5.672976E-1,8.671572E-1,-3.1932226E-1,-2.0163602E-1,-1.1146136E-1,-5.247855E-2,8.792666E-3,8.405566E-2,1.8855059E-1,3.1684262E-1],"split_indices":[10,10,10,10,10,10,10,0,0,0,0,0,0,0,0],"split_type":[0,0,0,0,0,0,0,0,0,0,0,0,0,0,0],"sum_hessian":[4.4654883E4,1.8912092E4,2.5742791E4,5.2506826E3,1.3661409E4,1.9158248E4,6.5845425E3,1.6418038E3,3.6088787E3,6.897387E3,6.764022E3,9.228797E3,9.929452E3,5.0315327E3,1.5530099E3],"tree_param":{"num_deleted":"0","num_feature":"11","num_nodes":"15","size_leaf_vector":"0"}},{"base_weights":[-1.1306538E-3,-2.9664546E-1,2.3961575E-1,-7.0512664E-1,-1.9637461E-1,1.4363173E-1,6.842958E-1,-1.0169114E0,-6.0589206E-1,-3.149982E-1,-1.2578082E-1,7.827951E-2,3.010128E-1,6.063481E-1,1.0492615E0],"categories":[],"categories_nodes":[],"categories_segments":[],"categories_sizes":[],"default_left":[1,1,1,1,1,1,1,0,0,0,0,0,0,0,0],"id":4,"left_children":[1,3,5,7,9,11,13,-1,-1,-1,-1,-1,-1,-1,-1],"loss_changes":[3.0451787E3,7.869142E2,1.0066553E3,1.16549194E2,1.2917139E2,1.9952017E2,1.184812E2,0E0,0E0,0E0,0E0,0E0,0E0,0E0,0E0],"parents":[2147483647,0,0,1,1,2,2,3,3,4,4,5,5,6,6],"right_children":[2,4,6,8,10,12,14,-1,-1,-1,-1,-1,-1,-1,-1],"split_conditions":[4.7545326E-1,2.3202926E-1,7.568226E-1,1.055829E-1,3.516569E-1,6.431799E-1,9.062909E-1,-3.0507344E-1,-1.8176763E-1,-9.449947E-2,-3.7734248E-2,2.3483854E-2,9.0303846E-2,1.8190444E-1,3.1477845E-1],"split_indices":[10,10,10,10,10,10,10,0,0,0,0,0,0,0,0],"split_type":[0,0,0,0,0,0,0,0,0,0,0,0,0,0,0],"sum_hessian":[4.2800957E4,1.9214742E4,2.3586215E4,3.7858787E3,1.5428862E4,1.9400045E4,4.18617E3,9.1181177E2,2.874067E3,5.754955E3,9.673907E3,1.3708933E4,5.691112E3,3.4516453E3,7.345246E2],"tree_param":{"num_deleted":"0","num_feature":"11","num_nodes":"15","size_leaf_vector":"0"}},{"base_weights":[-8.4327353E-4,-1.6200128E-1,2.524819E-1,-5.032175E-1,-8.221564E-2,1.703739E-1,6.230663E-1,-8.291371E-1,-3.9963907E-1,-1.2639248E-1,3.368138E-2,1.2193355E-1,2.5357193E-1,5.3854376E-1,9.600363E-1],"categories":[],"categories_nodes":[],"categories_segments":[],"categories_sizes":[],"default_left":[1,1,1,1,1,1,1,0,0,0,0,0,0,0,0],"id":5,"left_children":[1,3,5,7,9,11,13,-1,-1,-1,-1,-1,-1,-1,-1],"loss_changes":[1.6864122E3,6.872793E2,4.8860382E2,1.6118164E2,1.04775696E2,5.2963257E1,8.244287E1,0E0,0E0,0E0,0E0,0E0,0E0,0E0,0E0],"parents":[2147483647,0,0,1,1,2,2,3,3,4,4,5,5,6,6],"right_children":[2,4,6,8,10,12,14,-1,-1,-1,-1,-1,-1,-1,-1],"split_conditions":[5.5311656E-1,2.727564E-1,7.8181696E-1,1.3710847E-1,5.4712486E-1,6.664168E-1,9.07073E-1,-2.4874114E-1,-1.19891725E-1,-3.7917748E-2,1.0104415E-2,3.6580067E-2,7.607158E-2,1.6156313E-1,2.880109E-1],"split_indices":[10,10,10,10,1,10,10,0,0,0,0,0,0,0,0],"split_type":[0,0,0,0,0,0,0,0,0,0,0,0,0,0,0],"sum_hessian":[4.1305938E4,2.5245717E4,1.6060221E4,4.7834053E3,2.0462312E4,1.314846E4,2.91176E3,1.1518843E3,3.6315208E3,1.4815101E4,5.647211E3,8.311643E3,4.836818E3,2.3299377E3,5.818224E2],"tree_param":{"num_deleted":"0","num_feature":"11","num_nodes":"15","size_leaf_vector":"0"}},{"base_weights":[-5.423393E-4,-2.0045656E-1,1.1772536E-1,-6.321047E-1,-1.5040362E-1,7.338121E-2,5.10225E-1,-8.8142854E-1,-5.151012E-1,-2.380778E-1,-1.0098921E-1,2.9725472E-2,1.6011964E-1,4.1810822E-1,8.3667856E-1],"categories":[],"categories_nodes":[],"categories_segments":[],"categories_sizes":[],"default_left":[1,1,1,1,1,1,1,0,0,0,0,0,0,0,0],"id":6,"left_children":[1,3,5,7,9,11,13,-1,-1,-1,-1,-1,-1,-1,-1],"loss_changes":[9.4972144E2,3.2248413E2,4.392312E2,4.4794495E1,5.794516E1,8.586555E1,7.668671E1,0E0,0E0,0E0,0E0,0E0,0E0,0E0,0E0],"parents":[2147483647,0,0,1,1,2,2,3,3,4,4,5,5,6,6],"right_children":[2,4,6,8,10,12,14,-1,-1,-1,-1,-1,-1,-1,-1],"split_conditions":[4.406141E-1,1.7300121E-1,7.8181696E-1,9.233816E-2,3.1665E-1,6.207124E-1,8.9694273E-1,-2.644286E-1,-1.5453036E-1,-7.1423344E-2,-3.0296763E-2,8.917642E-3,4.8035894E-2,1.2543248E-1,2.510036E-1],"split_indices":[10,10,10,10,10,10,10,0,0,0,0,0,0,0,0],"split_type":[0,0,0,0,0,0,0,0,0,0,0,0,0,0,0],"sum_hessian":[4.016658E4,1.4929593E4,2.5236984E4,1.5501061E3,1.3379486E4,2.2676236E4,2.5607476E3,4.930112E2,1.0570948E3,4.821341E3,8.5581455E3,1.5085166E4,7.591071E3,1.9989706E3,5.617771E2],"tree_param":{"num_deleted":"0","num_feature":"11","num_nodes":"15","size_leaf_vector":"0"}},{"base_weights":[-4.3556144E-4,-1.5961485E-1,7.909044E-2,-5.28088E-1,-1.1748979E-1,5.2703224E-2,5.149133E-1,-7.991288E-1,-4.1513082E-1,-1.2870988E-1,1.5369152E-1,-8.205203E-2,7.829018E-2,4.443049E-1,9.287849E-1],"categories":[],"categories_nodes":[],"categories_segments":[],"categories_sizes":[],"default_left":[1,1,1,1,1,1,1,0,0,0,0,0,0,0,0],"id":7,"left_children":[1,3,5,7,9,11,13,-1,-1,-1,-1,-1,-1,-1,-1],"loss_changes":[4.9702515E2,2.0297531E2,3.0107294E2,4.0746246E1,3.5740646E1,8.513233E1,4.326407E1,0E0,0E0,0E0,0E0,0E0,0E0,0E0,0E0],"parents":[2147483647,0,0,1,1,2,2,3,3,4,4,5,5,6,6],"right_children":[2,4,6,8,10,12,14,-1,-1,-1,-1,-1,-1,-1,-1],"split_conditions":[4.2391652E-1,1.7300121E-1,8.197495E-1,9.143548E-2,6.69594E-1,3.9358187E-1,9.3606794E-1,-2.3973864E-1,-1.2453925E-1,-3.8612965E-2,4.6107456E-2,-2.461561E-2,2.3487056E-2,1.3329148E-1,2.7863547E-1],"split_indices":[10,10,10,10,1,1,10,0,0,0,0,0,0,0,0],"split_type":[0,0,0,0,0,0,0,0,0,0,0,0,0,0,0],"sum_hessian":[3.9260934E4,1.3079664E4,2.618127E4,1.3407157E3,1.1738948E4,2.4687658E4,1.4936113E3,3.925992E2,9.481165E2,1.1273053E4,4.6589532E2,3.9392341E3,2.0748424E4,1.2777029E3,2.1590845E2],"tree_param":{"num_deleted":"0","num_feature":"11","num_nodes":"15","size_leaf_vector":"0"}},{"base_weights":[-3.528265E-4,-3.533721E-2,2.2111125E-1,-3.3288836E-1,-1.3300734E-2,1.7090625E-1,5.709195E-1,-6.796516E-1,-2.6253083E-1,-1.5354179E-1,3.8962474E-3,2.558903E-1,7.031782E-2,4.673086E-1,8.656796E-1],"categories":[],"categories_nodes":[],"categories_segments":[],"categories_sizes":[],"default_left":[1,1,1,1,1,1,1,0,0,0,0,0,0,0,0],"id":8,"left_children":[1,3,5,7,9,11,13,-1,-1,-1,-1,-1,-1,-1,-1],"loss_changes":[2.9953714E2,2.1891284E2,9.252658E1,5.598639E1,7.497099E1,3.942073E1,1.979837E1,0E0,0E0,0E0,0E0,0E0,0E0,0E0,0E0],"parents":[2147483647,0,0,1,1,2,2,3,3,4,4,5,5,6,6],"right_children":[2,4,6,8,10,12,14,-1,-1,-1,-1,-1,-1,-1,-1],"split_conditions":[6.923617E-1,2.242021E-1,8.671572E-1,1.0095143E-1,2.9408118E-1,7.3516905E-1,9.3606794E-1,-2.038955E-1,-7.875925E-2,-4.6062537E-2,1.1688742E-3,7.6767094E-2,2.1095347E-2,1.4019258E-1,2.597039E-1],"split_indices":[10,10,10,10,1,0,10,0,0,0,0,0,0,0,0],"split_type":[0,0,0,0,0,0,0,0,0,0,0,0,0,0,0],"sum_hessian":[3.8658996E4,3.3385906E4,5.273087E3,2.3010808E3,3.1084826E4,4.612572E3,6.605148E2,3.866724E2,1.9144083E3,3.3945344E3,2.7690293E4,2.4993794E3,2.1131924E3,4.9063678E2,1.6987798E2],"tree_param":{"num_deleted":"0","num_feature":"11","num_nodes":"15","size_leaf_vector":"0"}},{"base_weights":[-2.1000639E-4,-5.7114247E-2,8.802661E-2,-3.3128312E-1,-4.121309E-2,6.824766E-2,4.1384816E-1,-8.8364637E-1,-2.7993795E-1,-5.364807E-2,8.465443E-2,4.9405042E-2,1.6372283E-1,3.4084824E-1,7.993496E-1],"categories":[],"categories_nodes":[],"categories_segments":[],"categories_sizes":[],"default_left":[1,1,1,1,1,1,1,0,0,0,0,0,0,0,0],"id":9,"left_children":[1,3,5,7,9,11,13,-1,-1,-1,-1,-1,-1,-1,-1],"loss_changes":[1.9190045E2,1.0128144E2,9.65369E1,3.5872253E1,3.437918E1,2.5408157E1,2.3855194E1,0E0,0E0,0E0,0E0,0E0,0E0,0E0,0E0],"parents":[2147483647,0,0,1,1,2,2,3,3,4,4,5,5,6,6],"right_children":[2,4,6,8,10,12,14,-1,-1,-1,-1,-1,-1,-1,-1],"split_conditions":[5.476823E-1,1.8410067E-1,8.4418964E-1,4.9202945E-2,6.525816E-1,7.3222697E-1,9.3606794E-1,-2.6509392E-1,-8.398139E-2,-1.6094422E-2,2.539633E-2,1.4821514E-2,4.911685E-2,1.0225447E-1,2.398049E-1],"split_indices":[10,10,10,10,1,1,10,0,0,0,0,0,0,0,0],"split_type":[0,0,0,0,0,0,0,0,0,0,0,0,0,0,0],"sum_hessian":[3.8217277E4,2.3233943E4,1.4983335E4,1.2725587E3,2.1961385E4,1.4126969E4,8.563661E2,1.0685195E2,1.1657068E3,1.9987328E4,1.9740579E3,1.1799735E4,2.327234E3,7.216047E2,1.3476144E2],"tree_param":{"num_deleted":"0","num_feature":"11","num_nodes":"15","size_leaf_vector":"0"}},{"base_weights":[-1.1907827E-4,-9.7997114E-2,3.017364E-2,-5.177968E-1,-8.4087685E-2,1.3005665E-2,1.8383741E-1,-8.227331E-1,-3.8693395E-1,-4.3233477E-2,-1.6847166E-1,1.1457119E-1,-3.9022265E-3,1.5379396E-1,6.141253E-1],"categories":[],"categories_nodes":[],"categories_segments":[],"categories_sizes":[],"default_left":[1,1,1,1,1,1,1,0,0,0,0,0,0,0,0],"id":10,"left_children":[1,3,5,7,9,11,13,-1,-1,-1,-1,-1,-1,-1,-1],"loss_changes":[1.1220321E2,5.2181946E1,7.623512E1,1.112027E1,2.984182E1,4.4641533E1,3.7448296E1,0E0,0E0,0E0,0E0,0E0,0E0,0E0,0E0],"parents":[2147483647,0,0,1,1,2,2,3,3,4,4,5,5,6,6],"right_children":[2,4,6,8,10,12,14,-1,-1,-1,-1,-1,-1,-1,-1],"split_conditions":[3.7735522E-1,1.0095143E-1,7.4561155E-1,4.9202945E-2,3.9435226E-1,3.541503E-1,9.158126E-1,-2.4681994E-1,-1.1608019E-1,-1.2970043E-2,-5.05415E-2,3.4371357E-2,-1.1706679E-3,4.613819E-2,1.842376E-1],"split_indices":[10,10,10,10,0,0,10,0,0,0,0,0,0,0,0],"split_type":[0,0,0,0,0,0,0,0,0,0,0,0,0,0,0],"sum_hessian":[3.784067E4,8.942985E3,2.8897688E4,2.8564746E2,8.657338E3,2.5994549E4,2.9031382E3,8.418733E1,2.0146013E2,5.8342285E3,2.8231091E3,3.7089785E3,2.228557E4,2.714934E3,1.8820398E2],"tree_param":{"num_deleted":"0","num_feature":"11","num_nodes":"15","size_leaf_vector":"0"}},{"base_weights":[-1.0703433E-4,-1.3158788E-1,1.4589132E-2,-7.5651366E-1,-1.2009481E-1,8.023321E-3,2.4225512E-1,-4.4258016E-1,-8.437701E-1,6.640042E-1,-1.2934083E-1,-9.238811E-2,2.066014E-2,2.0248508E-1,7.4366325E-1],"categories":[],"categories_nodes":[],"categories_segments":[],"categories_sizes":[],"default_left":[1,1,1,1,1,1,1,0,0,0,0,0,0,0,0],"id":11,"left_children":[1,3,5,7,9,11,13,-1,-1,-1,-1,-1,-1,-1,-1],"loss_changes":[7.264126E1,2.7055168E1,5.0544056E1,1.4910889E0,2.7000713E1,4.170682E1,1.8749973E1,0E0,0E0,0E0,0E0,0E0,0E0,0E0,0E0],"parents":[2147483647,0,0,1,1,2,2,3,3,4,4,5,5,6,6],"right_children":[2,4,6,8,10,12,14,-1,-1,-1,-1,-1,-1,-1,-1],"split_conditions":[2.8222084E-1,4.9202945E-2,8.2681537E-1,4.8129335E-2,5.1610842E-2,3.1812048E-1,9.475713E-1,-1.3277406E-1,-2.5313103E-1,1.9920127E-1,-3.880225E-2,-2.7716434E-2,6.198042E-3,6.0745526E-2,2.2309898E-1],"split_indices":[10,10,10,0,0,1,10,0,0,0,0,0,0,0,0],"split_type":[0,0,0,0,0,0,0,0,0,0,0,0,0,0,0],"sum_hessian":[3.759186E4,3.7785647E3,3.3813293E4,6.7066315E1,3.7114983E3,3.2866473E4,9.468227E2,1.59071865E1,5.115913E1,4.2430214E1,3.669068E3,3.6731917E3,2.919328E4,8.7854333E2,6.827933E1],"tree_param":{"num_deleted":"0","num_feature":"11","num_nodes":"15","size_leaf_vector":"0"}},{"base_weights":[-1.1589189E-4,-1.3718795E-2,9.656193E-2,-6.6117793E-3,-2.5748187E-1,4.1283008E-1,6.104167E-2,-3.152538E-2,6.0726114E-2,-5.161801E-1,-1.8452549E-1,3.2007855E-1,8.228413E-1,2.3435142E-3,1.3991402E-1],"categories":[],"categories_nodes":[],"categories_segments":[],"categories_sizes":[],"default_left":[1,1,1,1,1,1,1,0,0,0,0,0,0,0,0],"id":12,"left_children":[1,3,5,7,9,11,13,-1,-1,-1,-1,-1,-1,-1,-1],"loss_changes":[4.9184086E1,5.679831E1,5.1798664E1,5.344879E1,1.7434517E1,1.744374E1,1.9205994E1,0E0,0E0,0E0,0E0,0E0,0E0,0E0,0E0],"parents":[2147483647,0,0,1,1,2,2,3,3,4,4,5,5,6,6],"right_children":[2,4,6,8,10,12,14,-1,-1,-1,-1,-1,-1,-1,-1],"split_conditions":[6.994034E-1,7.729285E-1,5.449917E-1,5.7078093E-1,5.1771986E-1,8.022802E-1,3.5E0,-9.457614E-3,1.8217836E-2,-1.5485403E-1,-5.535765E-2,9.602357E-2,2.468524E-1,7.030543E-4,4.197421E-2],"split_indices":[1,0,0,10,1,1,4,0,0,0,0,0,0,0,0],"split_type":[0,0,0,0,0,0,0,0,0,0,0,0,0,0,0],"sum_hessian":[3.7397523E4,3.2785367E4,4.612156E3,3.1857572E4,9.2779395E2,4.646193E2,4.1475366E3,2.325445E4,8.603124E3,2.0275687E2,7.2503705E2,3.8035678E2,8.426253E1,2.378469E3,1.7690675E3],"tree_param":{"num_deleted":"0","num_feature":"11","num_nodes":"15","size_leaf_vector":"0"}},{"base_weights":[-7.6057336E-6,-3.1272542E-1,3.4012094E-3,-1.09337464E-1,-4.7081533E-1,2.3993645E-4,2.692885E-1,-8.376121E-1,1.7113091E-2,-7.07196E-1,-3.7728137E-1,-3.0836733E-3,2.0461924E-1,2.962639E-1,-1.1667761E0],"categories":[],"categories_nodes":[],"categories_segments":[],"categories_sizes":[],"default_left":[1,1,1,1,1,1,1,0,0,0,0,0,0,0,0],"id":13,"left_children":[1,3,5,7,9,11,13,-1,-1,-1,-1,-1,-1,-1,-1],"loss_changes":[3.974122E1,1.2874306E1,3.0998123E1,1.6324987E1,4.7274513E0,2.4757885E1,1.7131727E1,0E0,0E0,0E0,0E0,0E0,0E0,0E0,0E0],"parents":[2147483647,0,0,1,1,2,2,3,3,4,4,5,5,6,6],"right_children":[2,4,6,8,10,12,14,-1,-1,-1,-1,-1,-1,-1,-1],"split_conditions":[1.2560737E-1,1.3331123E-1,8.671572E-1,3.6853716E-2,7.953572E-2,2.35E1,9.741069E-1,-2.5128365E-1,5.133928E-3,-2.1215881E-1,-1.13184415E-1,-9.2510204E-4,6.1385777E-2,8.8879175E-2,-3.5003284E-1],"split_indices":[10,0,10,10,10,6,0,0,0,0,0,0,0,0,0],"split_type":[0,0,0,0,0,0,0,0,0,0,0,0,0,0,0],"sum_hessian":[3.7278797E4,4.0100134E2,3.6877793E4,1.7611504E2,2.248863E2,3.6445477E4,4.3231836E2,2.5222942E1,1.5089209E2,6.1897358E1,1.6298895E2,3.5863254E4,5.822222E2,4.251264E2,7.191977E0],"tree_param":{"num_deleted":"0","num_feature":"11","num_nodes":"15","size_leaf_vector":"0"}},{"base_weights":[-4.9704166E-5,-3.3015277E-2,2.470195E-2,-1.3884285E-2,-2.5443104E-1,1.9791165E-1,1.2509445E-2,-7.192174E-2,7.7088843E-3,-3.762287E-1,-8.162825E-2,1.16617024E-1,4.6053353E-1,-6.444159E-2,3.3944193E-2],"categories":[],"categories_nodes":[],"categories_segments":[],"categories_sizes":[],"default_left":[1,1,1,1,1,1,1,0,0,0,0,0,0,0,0],"id":14,"left_children":[1,3,5,7,9,11,13,-1,-1,-1,-1,-1,-1,-1,-1],"loss_changes":[3.0369785E1,6.760815E1,4.4892445E1,1.841424E1,2.6686035E1,2.9792E1,3.276232E1,0E0,0E0,0E0,0E0,0E0,0E0,0E0,0E0],"parents":[2147483647,0,0,1,1,2,2,3,3,4,4,5,5,6,6],"right_children":[2,4,6,8,10,12,14,-1,-1,-1,-1,-1,-1,-1,-1],"split_conditions":[4.7206175E-1,5.7955027E-1,3.6924344E-1,3.1751025E-1,7.5E0,6.069467E-1,4.586517E-1,-2.1576524E-2,2.3126653E-3,-1.12868614E-1,-2.4488475E-2,3.498511E-2,1.3816006E-1,-1.9332478E-2,1.0183258E-2],"split_indices":[1,0,0,10,7,1,10,0,0,0,0,0,0,0,0],"split_type":[0,0,0,0,0,0,0,0,0,0,0,0,0,0,0],"sum_hessian":[3.7218047E4,1.596057E4,2.1257475E4,1.4692184E4,1.2683866E3,1.396942E3,1.9860533E4,3.983398E3,1.0708786E4,7.4330273E2,5.250838E2,1.067837E3,3.29105E2,4.326464E3,1.5534069E4],"tree_param":{"num_deleted":"0","num_feature":"11","num_nodes":"15","size_leaf_vector":"0"}},{"base_weights":[-4.691622E-5,-1.1711774E-3,5.6490386E-1,-1.8898906E-1,1.7508689E-3,6.332195E-1,-4.7793064E-2,-4.0899944E-1,-5.4780045E-3,-2.5384492E-1,4.2752353E-3,-1.7072341E-1,6.766398E-1,-8.753992E-1,6.3986194E-1],"categories":[],"categories_nodes":[],"categories_segments":[],"categories_sizes":[],"default_left":[1,1,1,1,1,1,1,0,0,0,0,0,0,0,0],"id":15,"left_children":[1,3,5,7,9,11,13,-1,-1,-1,-1,-1,-1,-1,-1],"loss_changes":[2.3578808E1,2.0333456E1,3.116314E0,2.2913717E1,2.3540375E1,2.4334717E0,5.2984724E0,0E0,0E0,0E0,0E0,0E0,0E0,0E0,0E0],"parents":[2147483647,0,0,1,1,2,2,3,3,4,4,5,5,6,6],"right_children":[2,4,6,8,10,12,14,-1,-1,-1,-1,-1,-1,-1,-1],"split_conditions":[9.3606794E-1,1.5586966E-1,9.745612E-1,7.5E0,1.382581E-1,2.5E0,9.260931E-1,-1.22699834E-1,-1.6434015E-3,-7.615348E-2,1.2825707E-3,-5.1217023E-2,2.0299195E-1,-2.6261976E-1,1.9195859E-1],"split_indices":[10,1,0,7,10,7,1,0,0,0,0,0,0,0,0],"split_type":[0,0,0,0,0,0,0,0,0,0,0,0,0,0,0],"sum_hessian":[3.712104E4,3.704831E4,7.2728806E1,5.665872E2,3.6481723E4,6.540289E1,7.3259096E0,2.5711032E2,3.094769E2,3.5581073E2,3.612591E4,3.201118E0,6.2201775E1,3.2007382E0,4.125171E0],"tree_param":{"num_deleted":"0","num_feature":"11","num_nodes":"15","size_leaf_vector":"0"}},{"base_weights":[-4.869987E-5,-7.579236E-3,7.355341E-2,2.3776319E-2,-3.0773018E-2,1.3553372E-1,-8.7217435E-2,1.7053578E-2,3.2272723E-1,-2.2227685E-1,-1.8907687E-2,8.75151E-2,2.6954445E-1,-1.1060431E-1,5.3556913E-1],"categories":[],"categories_nodes":[],"categories_segments":[],"categories_sizes":[],"default_left":[1,1,1,1,1,1,1,0,0,0,0,0,0,0,0],"id":16,"left_children":[1,3,5,7,9,11,13,-1,-1,-1,-1,-1,-1,-1,-1],"loss_changes":[2.0548462E1,2.4460014E1,3.430079E1,2.8735584E1,4.392465E1,1.5960892E1,1.4013742E1,0E0,0E0,0E0,0E0,0E0,0E0,0E0,0E0],"parents":[2147483647,0,0,1,1,2,2,3,3,4,4,5,5,6,6],"right_children":[2,4,6,8,10,12,14,-1,-1,-1,-1,-1,-1,-1,-1],"split_conditions":[7.227669E-1,4.4386965E-1,8.212842E-1,6.6983724E-1,3.6465496E-1,2.5E0,9.4967544E-1,5.1160734E-3,9.681817E-2,-6.668306E-2,-5.6723063E-3,2.6254531E-2,8.086334E-2,-3.3181295E-2,1.6067074E-1],"split_indices":[10,0,0,1,1,3,10,0,0,0,0,0,0,0,0],"split_type":[0,0,0,0,0,0,0,0,0,0,0,0,0,0,0],"sum_hessian":[3.7071457E4,3.3631387E4,3.440069E3,1.4299687E4,1.93317E4,2.4829863E3,9.570829E2,1.3986225E4,3.1346207E2,1.1268502E3,1.820485E4,1.8292013E3,6.537849E2,9.2323596E2,3.3846935E1],"tree_param":{"num_deleted":"0","num_feature":"11","num_nodes":"15","size_leaf_vector":"0"}},{"base_weights":[3.9829167E-5,3.5864287E-3,-1.2923802E-1,9.337173E-4,2.811936E-1,2.7782407E-1,-1.6164494E-1,-2.272868E-2,2.7292565E-2,1.7711322E-1,8.839011E-1,-1.0207195E-1,5.616521E-1,-5.382839E-1,-1.0893795E-1],"categories":[],"categories_nodes":[],"categories_segments":[],"categories_sizes":[],"default_left":[1,1,1,1,1,1,1,0,0,0,0,0,0,0,0],"id":17,"left_children":[1,3,5,7,9,11,13,-1,-1,-1,-1,-1,-1,-1,-1],"loss_changes":[1.6987328E1,2.6555296E1,1.3095228E1,2.2279936E1,2.1254354E1,7.962958E0,1.8144579E1,0E0,0E0,0E0,0E0,0E0,0E0,0E0,0E0],"parents":[2147483647,0,0,1,1,2,2,3,3,4,4,5,5,6,6],"right_children":[2,4,6,8,10,12,14,-1,-1,-1,-1,-1,-1,-1,-1],"split_conditions":[1.65E1,2.35E1,2.1335268E-1,5.115298E-1,3.605E2,1.490592E-1,2.9810098E-1,-6.818604E-3,8.18777E-3,5.313397E-2,2.6517034E-1,-3.0621586E-2,1.6849564E-1,-1.6148517E-1,-3.2681387E-2],"split_indices":[5,6,0,10,9,0,1,0,0,0,0,0,0,0,0],"split_type":[0,0,0,0,0,0,0,0,0,0,0,0,0,0,0],"sum_hessian":[3.7048035E4,3.605975E4,9.882883E2,3.571943E4,3.4031827E2,7.231897E1,9.1596936E2,1.8822535E4,1.6896895E4,2.9130692E2,4.9011368E1,3.1199575E1,4.1119396E1,1.11314445E2,8.046549E2],"tree_param":{"num_deleted":"0","num_feature":"11","num_nodes":"15","size_leaf_vector":"0"}},{"base_weights":[1.4734431E-5,-6.1148375E-1,6.609113E-4,-2.0572124E-1,-7.448157E-1,2.9818468E-2,-1.1296322E-2,-6.975472E-1,1.5433598E0,-1.913016E-1,-7.666954E-1,2.0215403E-2,2.1348527E-1,-1.7169112E-1,-5.0868234E-3],"categories":[],"categories_nodes":[],"categories_segments":[],"categories_sizes":[],"default_left":[1,1,1,1,1,1,1,0,0,0,0,0,0,0,0],"id":18,"left_children":[1,3,5,7,9,11,13,-1,-1,-1,-1,-1,-1,-1,-1],"loss_changes":[1.4604401E1,1.9575434E0,1.2872745E1,1.0565981E1,2.0434952E-1,1.8934914E1,2.6078062E1,0E0,0E0,0E0,0E0,0E0,0E0,0E0,0E0],"parents":[2147483647,0,0,1,1,2,2,3,3,4,4,5,5,6,6],"right_children":[2,4,6,8,10,12,14,-1,-1,-1,-1,-1,-1,-1,-1],"split_conditions":[4.6376616E-2,4.8129335E-2,3.8835627E-1,3.755468E-2,1.5E0,5.807245E-1,3.2054943E-1,-2.0926417E-1,4.6300796E-1,-5.739048E-2,-2.3000862E-1,6.0646213E-3,6.4045586E-2,-5.150734E-2,-1.5260471E-3],"split_indices":[10,0,0,10,2,1,1,0,0,0,0,0,0,0,0],"split_type":[0,0,0,0,0,0,0,0,0,0,0,0,0,0,0],"sum_hessian":[3.6958402E4,3.8015244E1,3.6920387E4,1.0031082E1,2.7984161E1,1.0736958E4,2.6183428E4,8.298742E0,1.7323399E0,1.4346112E0,2.6549551E1,1.0204522E4,5.324359E2,9.748876E2,2.520854E4],"tree_param":{"num_deleted":"0","num_feature":"11","num_nodes":"15","size_leaf_vector":"0"}},{"base_weights":[-2.6396341E-5,-8.2908645E-2,4.4358466E-3,6.472189E-2,-1.8318386E-1,-4.2987958E-1,6.0858587E-3,-3.7381005E-1,9.7158425E-2,-1.5447167E-1,-4.59883E-1,-3.0245373E-1,-7.818043E-1,2.2148104E-2,-2.0919306E-2],"categories":[],"categories_nodes":[],"categories_segments":[],"categories_sizes":[],"default_left":[1,1,1,1,1,1,1,0,0,0,0,0,0,0,0],"id":19,"left_children":[1,3,5,7,9,11,13,-1,-1,-1,-1,-1,-1,-1,-1],"loss_changes":[1.3676411E1,2.797879E1,2.5149025E1,1.0916536E1,8.869007E0,5.7197723E0,1.5164054E1,0E0,0E0,0E0,0E0,0E0,0E0,0E0,0E0],"parents":[2147483647,0,0,1,1,2,2,3,3,4,4,5,5,6,6],"right_children":[2,4,6,8,10,12,14,-1,-1,-1,-1,-1,-1,-1,-1],"split_conditions":[2.279521E-1,1.8985738E-1,1.2620312E-1,1.5E0,2.5E0,1.075E2,5.7712984E-1,-1.1214302E-1,2.9147528E-2,-4.63415E-2,-1.379649E-1,-9.073612E-2,-2.3454131E-1,6.6444315E-3,-6.275792E-3],"split_indices":[10,0,1,4,3,8,0,0,0,0,0,0,0,0,0],"split_type":[0,0,0,0,0,0,0,0,0,0,0,0,0,0,0],"sum_hessian":[3.69772E4,1.8881876E3,3.508901E4,7.638951E2,1.1242926E3,1.3182025E2,3.495719E4,5.188614E1,7.120089E2,1.0200078E3,1.0428471E2,9.814359E1,3.3676666E1,2.191981E4,1.3037378E4],"tree_param":{"num_deleted":"0","num_feature":"11","num_nodes":"15","size_leaf_vector":"0"}},{"base_weights":[-1.04303996E-4,-4.421938E-3,8.809723E-2,-5.5535543E-3,5.080246E-1,4.6742213E-1,3.592356E-2,-4.0405854E-3,-3.4170446E-1,5.9813887E-1,-7.69263E-1,6.198017E-1,5.5745605E-2,-3.673112E-2,1.3968708E-1],"categories":[],"categories_nodes":[],"categories_segments":[],"categories_sizes":[],"default_left":[1,1,1,1,1,1,1,0,0,0,0,0,0,0,0],"id":20,"left_children":[1,3,5,7,9,11,13,-1,-1,-1,-1,-1,-1,-1,-1],"loss_changes":[1.4082108E1,2.0445482E1,3.4135715E1,1.7888538E1,9.40193E0,1.3049473E1,1.1449981E1,0E0,0E0,0E0,0E0,0E0,0E0,0E0,0E0],"parents":[2147483647,0,0,1,1,2,2,3,3,4,4,5,5,6,6],"right_children":[2,4,6,8,10,12,14,-1,-1,-1,-1,-1,-1,-1,-1],"split_conditions":[7.801399E-1,9.068544E-1,2.5E0,8.7895954E-1,9.384948E-1,8.435068E-1,3.5E0,-1.2121757E-3,-1.0251134E-1,1.7944166E-1,-2.3077892E-1,1.8594052E-1,1.6723683E-2,-1.1019336E-2,4.1906126E-2],"split_indices":[1,10,4,0,0,0,4,0,0,0,0,0,0,0,0],"split_type":[0,0,0,0,0,0,0,0,0,0,0,0,0,0,0],"sum_hessian":[3.6976168E4,3.525149E4,1.7246782E3,3.5174805E4,7.668601E1,2.0757321E2,1.517105E3,3.5018203E4,1.5660011E2,7.212894E1,4.5570774E0,1.511284E2,5.6444813E1,8.926924E2,6.244126E2],"tree_param":{"num_deleted":"0","num_feature":"11","num_nodes":"15","size_leaf_vector":"0"}},{"base_weights":[2.2674178E-6,-1.4997915E-3,2.063896E-1,-9.620676E-3,3.531865E-2,1.221809E-1,4.9226117E-1,-2.6553886E-3,-7.8871384E-2,4.6435192E-2,-2.5149027E-1,2.4399976E-1,-1.1576631E-1,1.6042308E0,3.9809644E-1],"categories":[],"categories_nodes":[],"categories_segments":[],"categories_sizes":[],"default_left":[1,1,1,1,1,1,1,0,0,0,0,0,0,0,0],"id":21,"left_children":[1,3,5,7,9,11,13,-1,-1,-1,-1,-1,-1,-1,-1],"loss_changes":[1.1457412E1,1.0971081E1,6.3681974E0,1.4500214E1,2.1152428E1,6.04598E0,5.68908E0,0E0,0E0,0E0,0E0,0E0,0E0,0E0,0E0],"parents":[2147483647,0,0,1,1,2,2,3,3,4,4,5,5,6,6],"right_children":[2,4,6,8,10,12,14,-1,-1,-1,-1,-1,-1,-1,-1],"split_conditions":[4.515E2,6.527623E-1,6.0579765E-1,2.5E0,3.165E2,4.6475437E-1,2.4734116E-1,-7.966166E-4,-2.3661416E-2,1.3930558E-2,-7.544708E-2,7.3199935E-2,-3.4729894E-2,4.8126924E-1,1.1942894E-1],"split_indices":[9,10,1,3,8,0,0,0,0,0,0,0,0,0,0],"split_type":[0,0,0,0,0,0,0,0,0,0,0,0,0,0,0],"sum_hessian":[3.6956688E4,3.669065E4,2.6603683E2,3.006097E4,6.629679E3,2.0660495E2,5.943187E1,2.7314678E4,2.746292E3,6.383112E3,2.4656749E2,1.3663051E2,6.997445E1,3.3879476E0,5.6043922E1],"tree_param":{"num_deleted":"0","num_feature":"11","num_nodes":"15","size_leaf_vector":"0"}},{"base_weights":[3.3980206E-5,-2.6760188E-1,1.1130858E-3,3.21561E-1,-3.7954724E-1,4.375508E-2,-5.446004E-3,-6.475746E-1,7.644415E-1,-3.9840224E-1,9.775541E-1,2.2174521E-1,2.5308423E-2,-2.4194838E-1,-2.7571926E-3],"categories":[],"categories_nodes":[],"categories_segments":[],"categories_sizes":[],"default_left":[1,1,1,1,1,1,1,0,0,0,0,0,0,0,0],"id":22,"left_children":[1,3,5,7,9,11,13,-1,-1,-1,-1,-1,-1,-1,-1],"loss_changes":[1.0660207E1,9.89827E0,1.0282547E1,1.0885704E1,3.5884666E0,1.6086086E1,2.0261244E1,0E0,0E0,0E0,0E0,0E0,0E0,0E0,0E0],"parents":[2147483647,0,0,1,1,2,2,3,3,4,4,5,5,6,6],"right_children":[2,4,6,8,10,12,14,-1,-1,-1,-1,-1,-1,-1,-1],"split_conditions":[9.075089E-2,4.912827E-2,2.8006348E-1,3.755468E-2,6.371627E-1,2.5E0,2.161392E-1,-1.9427238E-1,2.2933246E-1,-1.1952068E-1,2.9326624E-1,6.652357E-2,7.592527E-3,-7.258452E-2,-8.271578E-4],"split_indices":[10,0,0,10,1,7,1,0,0,0,0,0,0,0,0],"split_type":[0,0,0,0,0,0,0,0,0,0,0,0,0,0,0],"sum_hessian":[3.690911E4,1.4722777E2,3.676188E4,2.3208757E1,1.24019005E2,4.90004E3,3.186184E4,7.1344876E0,1.6074268E1,1.230163E2,1.0027063E0,4.5910986E2,4.44093E3,3.5716714E2,3.1504674E4],"tree_param":{"num_deleted":"0","num_feature":"11","num_nodes":"15","size_leaf_vector":"0"}},{"base_weights":[-2.7898033E-5,-5.497055E-4,5.2673995E-1,5.668874E-3,-4.314287E-2,6.749265E-2,6.8503904E-1,-4.179051E-4,1.073252E-1,-1.3670267E-1,3.4143135E-3,-4.824483E-1,8.134526E-1,9.6018136E-1,1.3721158E-1],"categories":[],"categories_nodes":[],"categories_segments":[],"categories_sizes":[],"default_left":[1,1,1,1,1,1,1,0,0,0,0,0,0,0,0],"id":23,"left_children":[1,3,5,7,9,11,13,-1,-1,-1,-1,-1,-1,-1,-1],"loss_changes":[1.0149344E1,9.770566E0,2.6101694E0,1.9917196E1,2.0471102E1,4.689981E0,3.9476643E0,0E0,0E0,0E0,0E0,0E0,0E0,0E0,0E0],"parents":[2147483647,0,0,1,1,2,2,3,3,4,4,5,5,6,6],"right_children":[2,4,6,8,10,12,14,-1,-1,-1,-1,-1,-1,-1,-1],"split_conditions":[9.4967544E-1,7.28047E-1,3.5E0,7.065183E-1,6.7614686E-1,9.8153824E-1,8.556948E-1,-1.2537153E-4,3.219756E-2,-4.1010804E-2,1.0242941E-3,-1.447345E-1,2.440358E-1,2.880544E-1,4.1163474E-2],"split_indices":[10,0,7,10,1,10,1,0,0,0,0,0,0,0,0],"split_type":[0,0,0,0,0,0,0,0,0,0,0,0,0,0,0],"sum_hessian":[3.6921914E4,3.6886375E4,3.5540073E1,3.2187834E4,4.6985396E3,9.475808E0,2.6064264E1,3.0370373E4,1.8174619E3,1.5605576E3,3.1379822E3,5.6579056E0,3.8179026E0,1.6849178E1,9.215085E0],"tree_param":{"num_deleted":"0","num_feature":"11","num_nodes":"15","size_leaf_vector":"0"}},{"base_weights":[4.2959997E-5,-4.2916174E-4,5.606403E-1,2.3216761E-3,-1.01004004E-1,9.220424E-1,9.446538E-2,-3.7364252E-2,9.880603E-3,-2.7675933E-1,-4.0979713E-2,1.1457605E0,-1.9483621E-1,-9.2069584E-1,5.1464236E-1],"categories":[],"categories_nodes":[],"categories_segments":[],"categories_sizes":[],"default_left":[1,1,1,1,1,1,1,0,0,0,0,0,0,0,0],"id":24,"left_children":[1,3,5,7,9,11,13,-1,-1,-1,-1,-1,-1,-1,-1],"loss_changes":[9.7668085E0,1.020111E1,5.1443806E0,1.0766825E1,1.0344498E1,4.5652294E0,6.7331505E0,0E0,0E0,0E0,0E0,0E0,0E0,0E0,0E0],"parents":[2147483647,0,0,1,1,2,2,3,3,4,4,5,5,6,6],"right_children":[2,4,6,8,10,12,14,-1,-1,-1,-1,-1,-1,-1,-1],"split_conditions":[9.75E1,1.65E1,5.605718E-1,3.3360487E-1,2.5E0,5.25E1,6.3118494E-1,-1.1209276E-2,2.9641811E-3,-8.30278E-2,-1.2293914E-2,3.4372818E-1,-5.8450866E-2,-2.7620876E-1,1.5439272E-1],"split_indices":[6,5,10,10,4,5,10,0,0,0,0,0,0,0,0],"split_type":[0,0,0,0,0,0,0,0,0,0,0,0,0,0,0],"sum_hessian":[3.68999E4,3.6869848E4,3.0051678E1,3.5889215E4,9.806344E2,1.637729E1,1.3674387E1,5.7414536E3,3.014776E4,2.4872868E2,7.319057E2,1.3622712E1,2.754578E0,3.654291E0,1.0020096E1],"tree_param":{"num_deleted":"0","num_feature":"11","num_nodes":"15","size_leaf_vector":"0"}}]},"name":"gbtree"},"learner_model_param":{"base_score":"5E-1","num_class":"0","num_feature":"11","num_target":"1"},"objective":{"name":"binary:logistic","reg_loss_param":{"scale_pos_weight":"1"}}},"version":[1,6,2]}